{"layers":[{"out_depth":1,"out_sx":24,"out_sy":24,"layer_type":"input"},{"sx":5,"sy":5,"stride":1,"in_depth":1,"out_depth":8,"out_sx":24,"out_sy":24,"layer_type":"conv","l1_decay_mul":0,"l2_decay_mul":1,"pad":2,"filters":[{"sx":5,"sy":5,"depth":1,"w":{"0":0.041343076372607514,"1":-0.507215881597128,"2":0.2282433873570536,"3":0.2631185211381222,"4":-0.21144245846040163,"5":0.027536730561981096,"6":-0.33128003401467837,"7":-0.14733337304411462,"8":-0.3674744980508701,"9":-0.6154642149726235,"10":0.6480971849173451,"11":-0.21571227886593966,"12":-0.6291510044819514,"13":0.6980174118193664,"14":1.1432013133704484,"15":0.158603768566721,"16":-0.5489400332216836,"17":0.36515668886753966,"18":0.06245377824547902,"19":-0.48010264056973,"20":-0.8998122400655799,"21":0.04713627451718695,"22":0.9653206628850671,"23":-0.4996467462962157,"24":-1.8753078259554647}},{"sx":5,"sy":5,"depth":1,"w":{"0":0.03835029122016957,"1":0.6808620237710445,"2":0.6611738358311645,"3":-0.2644196645316753,"4":0.41706480414295244,"5":-0.5416918919255834,"6":-0.13624552327456485,"7":-0.06877163399102756,"8":-0.2795688483771158,"9":-0.3478181154078727,"10":-0.22912285608388955,"11":-0.8918960913282538,"12":-0.013198534724171946,"13":0.3989633350703431,"14":-0.0007123069198090187,"15":0.4408390170695017,"16":0.24596169540276772,"17":-0.5783110632971338,"18":0.57581435263882,"19":-0.07965869224981077,"20":0.2806519232517063,"21":0.3946776528411132,"22":-0.1577180711276606,"23":-0.7627626878738637,"24":0.19654757652069244}},{"sx":5,"sy":5,"depth":1,"w":{"0":0.36939970341517386,"1":0.27880837669364533,"2":-0.7897430650167511,"3":-0.06360775949451639,"4":0.7291941265802064,"5":-0.09583296485098464,"6":0.06845654882415896,"7":-0.5804579704704594,"8":-0.05699620246397257,"9":0.19174848389575394,"10":-0.11772105311667115,"11":0.029004566647953284,"12":-0.36289015287100024,"13":-0.7198406537257191,"14":0.29102296390184695,"15":-0.8753036728766267,"16":0.2667623957056697,"17":0.7886340298393187,"18":-0.5955526865852496,"19":-0.3112406172956532,"20":-0.23064561865920302,"21":0.2841816150724682,"22":0.6077150932616046,"23":0.2739890511075219,"24":-0.049707881809418035}},{"sx":5,"sy":5,"depth":1,"w":{"0":0.15265665655960436,"1":-0.1498163062393103,"2":0.08574069400812706,"3":0.18764083679840304,"4":0.01469808008653853,"5":0.18456220003897172,"6":0.09589228668219549,"7":-0.13603327884731586,"8":-0.019100443603536514,"9":0.4237182433525442,"10":0.26270277050323704,"11":-0.21155964238675626,"12":0.41212549356814754,"13":-0.19381903160258956,"14":0.08900502343094578,"15":0.09016381618785353,"16":-0.13461130007198194,"17":0.26346590348838766,"18":-0.2080890730874433,"19":0.30537968834434076,"20":0.3340401278908048,"21":-0.09922548099589179,"22":0.2952377903177027,"23":-0.16679621045163193,"24":0.16302093672539947}},{"sx":5,"sy":5,"depth":1,"w":{"0":-0.051366075707597735,"1":0.13479816157488508,"2":0.29332587504729074,"3":0.2022214139672342,"4":-0.2475400764508779,"5":0.15912784190065615,"6":0.3134028443386456,"7":-0.048764466371444715,"8":0.4700922585531232,"9":0.45850358990264406,"10":0.2629760658257857,"11":-0.19542223791424496,"12":-0.6054920303173874,"13":-0.44510689423780003,"14":-0.4230393561471535,"15":-0.11091758404415504,"16":-0.2610588940685922,"17":-0.2259528211770419,"18":-0.6825517396020374,"19":-0.21723405512986382,"20":-0.3507618584229894,"21":-0.2672081192046048,"22":0.643628744145214,"23":0.4187033628657088,"24":0.4492273141570526}},{"sx":5,"sy":5,"depth":1,"w":{"0":0.30717001849432607,"1":0.06731947401585504,"2":0.4959028083147402,"3":-0.000685641479996097,"4":-0.1997325892409489,"5":0.32296147375484713,"6":-0.355226321726677,"7":-0.3079626958358459,"8":0.6976789967496011,"9":0.03409725020869632,"10":-0.23020360664636233,"11":-0.7913765522510148,"12":-0.40992088963380413,"13":0.8026068901692008,"14":0.3079145288973104,"15":-0.6940429975279526,"16":-0.6593818151634,"17":-0.7213181742597101,"18":-0.05682598643840595,"19":0.08356905782431573,"20":0.08457259090862754,"21":-0.13504842559694333,"22":0.02318081823608284,"23":0.17076691731246127,"24":0.4677163667298739}},{"sx":5,"sy":5,"depth":1,"w":{"0":0.43111449216709435,"1":-0.15106205710732545,"2":-1.3731448507789887,"3":0.33729170950451903,"4":0.8641901065285094,"5":0.141458297011055,"6":-0.524393604695812,"7":-0.9152706809686235,"8":-1.220364291382697,"9":0.4794459587117419,"10":0.5810548363997377,"11":-0.5917126351361848,"12":-0.67314097974788,"13":-1.5536282335120148,"14":-0.2750564103787593,"15":-0.09240633458230865,"16":-1.2407721264506513,"17":0.371514918593563,"18":-0.10591716146293674,"19":-1.0257320282768512,"20":-0.029057370688446337,"21":-0.20942013922499148,"22":1.076926313027656,"23":-0.03730186083643185,"24":-0.4146228919985358}},{"sx":5,"sy":5,"depth":1,"w":{"0":-0.00800914963083937,"1":-0.04801110898859227,"2":-0.08262613539496827,"3":0.10111249957956421,"4":-0.01388655983864151,"5":0.6266614743287259,"6":0.07836698853862352,"7":0.18478487026339938,"8":-0.6845853355072629,"9":0.07994177405518979,"10":0.7145097751818896,"11":-0.5222523599871904,"12":-0.6625353764135985,"13":-0.16527900521325606,"14":0.004287469938198241,"15":0.37446558608535446,"16":-0.026233313294562,"17":-0.5253785683043057,"18":0.048193167012818346,"19":0.39000068292230916,"20":-0.10388166181995212,"21":0.3196709613928325,"22":-0.20743432911914356,"23":-0.02799485163681673,"24":-0.11845320396401339}}],"biases":{"sx":1,"sy":1,"depth":8,"w":{"0":-0.021231572772123845,"1":-0.3129213216377609,"2":-0.05657353835620119,"3":-0.8048844742982008,"4":-0.07265662815641268,"5":-0.38136940192280655,"6":0.034672264085543324,"7":0.05333232488623747}}},{"out_depth":8,"out_sx":24,"out_sy":24,"layer_type":"relu"},{"sx":2,"sy":2,"stride":2,"in_depth":8,"out_depth":8,"out_sx":12,"out_sy":12,"layer_type":"pool","pad":0},{"sx":5,"sy":5,"stride":1,"in_depth":8,"out_depth":16,"out_sx":12,"out_sy":12,"layer_type":"conv","l1_decay_mul":0,"l2_decay_mul":1,"pad":2,"filters":[{"sx":5,"sy":5,"depth":8,"w":{"0":0.08303738894526748,"1":-0.21027858696752552,"2":-0.2735190675283996,"3":0.1619588127644092,"4":0.21221507062344602,"5":-0.18672218835985138,"6":-0.44994552241999264,"7":0.4158159762374849,"8":-0.013965221415414049,"9":0.14857710704828375,"10":0.056303867125092194,"11":-0.04703833857570176,"12":0.35585763604375276,"13":-0.5819630693603286,"14":-0.6029626719595502,"15":-0.37870848766683574,"16":0.07915329992590261,"17":0.049622845946469554,"18":0.04431575092364324,"19":-0.0026365104562472664,"20":-0.23798966971215998,"21":-0.37959747720769205,"22":-0.4392149429783837,"23":0.061876970028200584,"24":-0.20836605881980674,"25":0.1085876700151056,"26":0.2032190941814418,"27":-0.26389206197506737,"28":0.5309762643777508,"29":-0.3818477540059306,"30":-0.09063764295523587,"31":0.027441349346671775,"32":-0.4407058442312596,"33":-0.06354558772202162,"34":-0.22810357659004998,"35":0.20327551754939768,"36":-0.02021877230586717,"37":-0.06164650160382206,"38":-0.4000775082124441,"39":-0.17093477747047248,"40":-0.4119781433806021,"41":0.4937993919692743,"42":0.13600366728980764,"43":0.33315126770882353,"44":-0.5466755533268044,"45":-0.22217782038022782,"46":-0.4740836544074232,"47":0.21639049155566378,"48":-0.7280418584906504,"49":-1.0551343787414211,"50":0.23727516875683385,"51":0.3273416369787791,"52":0.02726777070029985,"53":-0.546048448062287,"54":-0.025283587536232464,"55":-0.35788251461164067,"56":0.22440547626162063,"57":0.14835684764775836,"58":-0.16158554152133148,"59":0.27262987459096866,"60":0.363560638173067,"61":0.020612472505228813,"62":-0.10277369400052527,"63":0.09675073690565349,"64":0.15082883262206753,"65":0.6220435027436783,"66":0.06835632819892117,"67":0.16895269694867507,"68":0.2179495479770316,"69":-0.1723120980121443,"70":-0.029837007018283842,"71":0.1508193571704699,"72":0.05072144373765402,"73":0.5332752355619748,"74":0.01973031735809689,"75":0.389632864455893,"76":0.19393448047970624,"77":-0.2931273283798822,"78":0.1227271271318797,"79":-0.19161400977520449,"80":0.32265073730023813,"81":0.10775487447519126,"82":-0.18883611761510571,"83":0.18976387749983084,"84":-0.28944248945372764,"85":-0.6105198026399912,"86":-0.11188247801707664,"87":0.23858246543562925,"88":-0.19552360116072576,"89":0.11252985172624516,"90":-0.8284986525197046,"91":0.11550662227805394,"92":-0.2654052663688007,"93":-0.6870136231999061,"94":-0.05131244650249633,"95":0.5163101921103078,"96":-0.6297289945488893,"97":0.18458075749303443,"98":0.07757457035923193,"99":-0.026920162295698106,"100":0.11224333581526144,"101":0.044520124082064766,"102":0.35840123655252504,"103":0.02610821535439648,"104":-0.7420556411344673,"105":-0.062230048586411256,"106":-0.20317070682002852,"107":0.16898443918157485,"108":0.0015894985110647894,"109":0.16008067204007875,"110":0.23134346837118833,"111":0.21955318723138034,"112":-0.32833700130449095,"113":0.17486209831552213,"114":-0.1435490576816274,"115":0.14087106082719836,"116":0.2045695681106302,"117":0.32048859765885046,"118":0.4079552004816298,"119":-0.006204889132235295,"120":0.0791811842185924,"121":0.22142307231621666,"122":0.11184208891643317,"123":0.1945883307960923,"124":-0.0423157082681002,"125":0.12481651922020245,"126":0.02794518799530571,"127":-0.8827714552729884,"128":-0.33979805063808316,"129":-0.39293286575128705,"130":-0.3262936895647735,"131":0.02601112893447793,"132":-0.8307510171551314,"133":-0.6097384638777754,"134":0.2656897020706264,"135":-0.10386388699433469,"136":-0.4356939933438321,"137":-0.501589081932497,"138":-0.07046278887729532,"139":0.017132565256103852,"140":-0.6355044052330574,"141":-0.8787808165436861,"142":0.21081366673287102,"143":-0.24994327418358417,"144":-0.5473337136045308,"145":0.18313913405067997,"146":-0.26047709867665736,"147":-0.02370574890044574,"148":-0.3410848700450917,"149":-0.039910466296662804,"150":0.01126467598090941,"151":0.06388847199772253,"152":-0.5343524689636625,"153":-0.20277118408974057,"154":-0.3515906077504251,"155":-0.07604569405909806,"156":-0.507394726996312,"157":0.06742628272805914,"158":0.15043278497940393,"159":0.10262574764283337,"160":0.11062609593644401,"161":0.44674627264458083,"162":0.29039375283585683,"163":-0.0014615967318497565,"164":-0.33061394575693437,"165":0.21399593985492318,"166":-0.2153242418931525,"167":-0.8368755813603515,"168":-0.2229568338526661,"169":-0.8139443515896718,"170":0.21921742665884467,"171":0.020635014065137906,"172":-0.3838000727939839,"173":-0.1838644603168773,"174":-0.05612930261988883,"175":-0.053473544649567634,"176":-0.3120968041708156,"177":-0.1497271957218502,"178":0.25815786648581024,"179":0.10194335985436956,"180":-0.13125250065701305,"181":-0.7463081177375014,"182":-0.12860393921920973,"183":0.1900652236764274,"184":-0.5307745480079614,"185":-0.10583388141114425,"186":0.15254313539096773,"187":-0.10218946974772744,"188":-0.46138742940181315,"189":-0.16686795377926975,"190":-0.22527780905347727,"191":-0.1042023548948786,"192":-0.0815217939074515,"193":-0.2907841973956714,"194":-0.37739089331488046,"195":0.14360812891676464,"196":-0.5009123470852648,"197":-0.22126510521007053,"198":0.08985817223507826,"199":-0.44242605910598176}},{"sx":5,"sy":5,"depth":8,"w":{"0":0.14517045434062747,"1":-0.06554533557159817,"2":0.05284214736420272,"3":-0.1680495133427173,"4":-0.06281391681215873,"5":0.14717975956387072,"6":0.12023810390694964,"7":-0.22521490984894707,"8":-0.1892001524862589,"9":0.04342659409896518,"10":-0.24464749678669684,"11":0.05284461000319114,"12":-0.1456447644473995,"13":-0.039228169102364825,"14":0.06490538722543993,"15":-0.4009760755718101,"16":0.2114717420635833,"17":-0.4147627087864165,"18":-0.49948557192457055,"19":-0.22240582031101436,"20":-0.2831810252370127,"21":0.03035303702223681,"22":-0.18057041973515897,"23":-0.2522183159197132,"24":0.2729536248500892,"25":-0.4629024239586029,"26":-0.07366131137413273,"27":-0.4248709157033874,"28":-0.41298369088497777,"29":-0.5051137302554849,"30":0.2963359289572787,"31":0.24932255457670577,"32":0.0965947264757545,"33":-0.2845838695305088,"34":0.1724174880966635,"35":-0.1423459973782399,"36":-0.10758959892888645,"37":-0.2674450204387776,"38":0.5082282749197061,"39":-0.379965318886135,"40":-0.04277556441463939,"41":-0.1715553649504498,"42":-0.012115896367764969,"43":0.18366568171535436,"44":0.10836252331546156,"45":0.07323693927903938,"46":-0.0017910463000980511,"47":0.16949817343522225,"48":-0.06687997671100876,"49":0.29873063899553304,"50":0.07907839601341393,"51":0.05660206827591607,"52":0.20489227269599464,"53":-0.07193914473612505,"54":0.17221975713173074,"55":-0.10938534358942667,"56":0.07317766388270429,"57":0.12518604016323273,"58":-0.2715525665772111,"59":-0.19952554968489708,"60":-0.10923124650856317,"61":0.02391085246042831,"62":-0.03570182194988206,"63":-0.13357245826691153,"64":0.09160258444691388,"65":-0.2090572813139663,"66":-0.11415648339504943,"67":-0.6133626401245323,"68":-0.09911566187895669,"69":-0.18335005306978958,"70":0.08637544003356443,"71":0.28831366070016573,"72":-0.1827615050381298,"73":-0.6318632145953583,"74":-0.1792752697637106,"75":-0.18861660339091393,"76":0.39984086794193696,"77":-0.10013496872392998,"78":-0.02888703324380345,"79":-0.28639739061034764,"80":-0.13860680577697343,"81":-0.36553637962039587,"82":-0.6570211282104454,"83":0.08350887150517369,"84":-0.19461843592015507,"85":0.05836892765385263,"86":-0.3734593409125152,"87":-0.10325919137899177,"88":-0.4999087624152792,"89":-0.6526974410509595,"90":0.01995566958730578,"91":0.21729097876053585,"92":-0.285768486116065,"93":0.0017066144376771568,"94":-0.12587697821558694,"95":-0.1596769907821153,"96":0.21419057075410977,"97":-0.05193210020468991,"98":0.0941528769669843,"99":-0.22297512162745492,"100":-0.02475311765884758,"101":-0.06424727023787827,"102":0.01594473169951153,"103":-0.01939798449882103,"104":0.07875803485241607,"105":0.4014481465719809,"106":0.2451358528734711,"107":-0.8679487255034674,"108":-0.22881906022472287,"109":-0.3877520721681983,"110":0.2962635041298135,"111":0.33075119453505386,"112":-0.2810374688757305,"113":0.18677882967912723,"114":-0.9248994756847435,"115":-0.365139453225877,"116":-0.16243847785544127,"117":-0.38660412359047563,"118":-0.5278130445058896,"119":0.24961429484623437,"120":-0.3424756006220911,"121":0.21867203310944403,"122":-0.2786824218236814,"123":-0.13389538368350629,"124":-0.3192284742094971,"125":0.30549785931696727,"126":-0.14203970289659165,"127":-0.1958688424221665,"128":-0.6892056798925071,"129":-0.703175875251547,"130":-0.3111424277960743,"131":0.011453971111886008,"132":0.01931332417950331,"133":-0.1569240210871355,"134":0.07014108757504567,"135":-0.17271804053492631,"136":-0.38546340046365896,"137":-0.3344178862953931,"138":-0.2005117816863923,"139":-0.0397172545487897,"140":0.09482855320733709,"141":0.3694817764698965,"142":-0.24903443692111707,"143":-0.18328721727385713,"144":0.773896178981195,"145":-0.3309713403756808,"146":0.34278789986174135,"147":-0.664082100957633,"148":0.0391156130178758,"149":-0.004345388038400243,"150":0.053221312038831646,"151":0.02214342498140249,"152":0.4534005400023543,"153":0.22297798492518342,"154":-0.0712968146723548,"155":-0.33988987847864977,"156":-0.9603100240793271,"157":0.22088473896900876,"158":-0.09252447822231702,"159":0.3445486048784477,"160":0.2557795131628379,"161":0.1813676936534237,"162":0.11350240315196594,"163":-0.48211529853594987,"164":-0.07699296243644362,"165":0.09022545980434098,"166":0.10538636379954955,"167":-0.12767785611843158,"168":-0.41238826518261823,"169":-0.2883400221640426,"170":-0.13616458555073407,"171":-0.15182750022027847,"172":0.0451650530651957,"173":-0.0969733931001998,"174":-0.24887139945825454,"175":0.24793283078739003,"176":-0.4726326530210954,"177":-0.2444351112081748,"178":-0.06019640362055652,"179":-0.05447282456484315,"180":-0.0048592549825508796,"181":0.221806566960302,"182":-0.04919758980389437,"183":-0.19033471668952126,"184":-0.09267580006017624,"185":0.5023793044648618,"186":0.005624372464656956,"187":-0.327237012297368,"188":-0.046990504767636755,"189":0.6285152787970505,"190":0.1433846889801496,"191":-0.33476124376552874,"192":0.4033277796189229,"193":-0.0034574993327323184,"194":0.4774232293470382,"195":-0.26742604677680226,"196":-0.21516943452771517,"197":0.002727685500579332,"198":0.07351086617276577,"199":0.1477312870862454}},{"sx":5,"sy":5,"depth":8,"w":{"0":0.44172749276259815,"1":-0.06478465290078472,"2":0.24438099428304563,"3":-0.40908454484089335,"4":0.17001207232073426,"5":0.04639190571628252,"6":-0.4555381020471788,"7":0.27907547381412307,"8":0.5602646527256142,"9":0.1543968646695444,"10":0.09794504681595312,"11":-0.13365678759447336,"12":0.17961888333512588,"13":0.24527793773418885,"14":-0.7689071325125952,"15":-0.0007887541056717854,"16":0.25304019430429403,"17":-0.019039758131850135,"18":-0.10614556637301648,"19":0.410306889515063,"20":-0.45427412616506757,"21":0.06250788165066945,"22":0.247746201635296,"23":-0.06394289472653107,"24":-0.09388515846999798,"25":0.17923493204020782,"26":0.06355157069016025,"27":0.14910800678373756,"28":0.3950959059605849,"29":-0.07056451444870919,"30":0.07269148217936668,"31":-0.1789237953557606,"32":0.26863744781709864,"33":-0.057781598278885654,"34":-0.04170190726766838,"35":-0.03559805418501508,"36":0.3735866825487016,"37":-0.06381385207211258,"38":0.07392902468842699,"39":0.16600158746478488,"40":0.7229706577160094,"41":-0.14235848829361744,"42":0.2570909104718327,"43":-0.2526770005943258,"44":0.3039049666062534,"45":-0.384090339005665,"46":-0.46270472545865254,"47":0.26673169109341394,"48":0.3884711917542785,"49":0.05895943393205315,"50":-0.3856885792903722,"51":-0.4522460918417728,"52":-0.21939250247193118,"53":-0.3538793900286929,"54":-0.5319068898025342,"55":0.12686633487062027,"56":0.4274999859569125,"57":0.008999608865381368,"58":-0.0396140552172044,"59":0.07505460713702068,"60":-0.2076823631648515,"61":-0.011615956392698287,"62":-0.26256799641884876,"63":-0.026600989626522534,"64":-0.0824290070289902,"65":-0.3383278608396187,"66":-0.17152185024268088,"67":0.04135983902378633,"68":0.03679341781630128,"69":0.04350824920996044,"70":-0.015114713151561664,"71":0.14048811139196868,"72":0.03677257340502151,"73":0.3110271708923838,"74":0.022779690863902496,"75":-0.15471030654143592,"76":0.6106710587236056,"77":-0.07032038051234783,"78":-0.12946958455512028,"79":-0.017482565830703508,"80":0.37876089935339474,"81":0.009803456201608891,"82":-0.0169667902849341,"83":-0.32868119773898313,"84":0.20513220629732773,"85":-0.25511655882768947,"86":-0.4756196483316367,"87":0.21354932330521978,"88":-0.1387469802431632,"89":0.03540707058734358,"90":-0.199473925923531,"91":-0.42479833431385655,"92":-0.09727507100602593,"93":0.3445334147910946,"94":-0.10882528663753334,"95":0.11426293161497499,"96":0.6912207766666632,"97":-0.07704801616871824,"98":0.7221544091053227,"99":-0.25797606687780783,"100":-0.10361280138140454,"101":0.1677989253556489,"102":0.0681224671817261,"103":-0.05589078485842995,"104":-0.3890896001864391,"105":-0.25855162645915597,"106":-0.482343092399885,"107":-0.17550439438441987,"108":0.0019168575442564905,"109":-0.02512530029658849,"110":-0.11512178300908547,"111":0.1860078578595111,"112":-0.3447423419972174,"113":0.2087968103014065,"114":0.2144186003736778,"115":-0.5141552047533176,"116":0.5172261073778858,"117":0.05463218581233082,"118":-0.0827257296851215,"119":-0.500719672146605,"120":-0.06340637622784763,"121":-0.24862718599220626,"122":0.05551614293365167,"123":-0.6594868262977279,"124":0.40829701313244793,"125":-0.03820862802249585,"126":-0.05043100716738273,"127":0.06050182459551531,"128":0.04354952561704252,"129":-0.3864498448852084,"130":-0.07150969912840167,"131":-0.3274415377276188,"132":0.019006425594903086,"133":0.02726692231706696,"134":0.052792889327367934,"135":-0.03708003442001249,"136":0.04600859784916554,"137":0.05776162688612767,"138":0.4267628006347501,"139":-0.7427341205682796,"140":-0.2214106898128045,"141":0.31988188518418287,"142":-0.17821713925248356,"143":-0.6638677614795232,"144":0.31113027384251934,"145":-0.10231433184051157,"146":0.08551403828575871,"147":-0.47593369797360535,"148":-0.23913729050891994,"149":-1.0205719990391136,"150":-0.2889605414136185,"151":0.4776754365522744,"152":-0.441965927961911,"153":-0.5610919947832956,"154":-0.024781767291942026,"155":-0.522057376013245,"156":0.2327338875035259,"157":-0.36329556455574347,"158":-0.47365335014800536,"159":-0.3542480409878438,"160":0.09787820492370558,"161":-0.006617725307626984,"162":-0.027937818043742357,"163":-1.0184952725081715,"164":0.28528255922694473,"165":0.23547012149107574,"166":0.0224076125134424,"167":-0.23615194556106334,"168":0.43004773064690865,"169":-0.43755338406295957,"170":0.12710679066896263,"171":-0.08110017829468257,"172":-0.18582978321589172,"173":0.027117793182136595,"174":0.40801585750157293,"175":-0.17517001229658585,"176":0.07362451586045203,"177":0.129698423085728,"178":0.2871442133343921,"179":-0.6573616601972913,"180":-0.046047569024093474,"181":0.4194368309271353,"182":-0.12527980371552214,"183":-0.2536788084184871,"184":-0.022158065324073387,"185":0.179477837343707,"186":0.44544645080571726,"187":-0.23108767488569396,"188":0.14828776332193386,"189":-0.3215040681009781,"190":-0.3155412902221517,"191":0.11539899164008634,"192":-0.04725907656623765,"193":-0.3386861204484908,"194":-0.4004703263821431,"195":-0.049584006545342556,"196":0.2975575488028216,"197":-0.3828171114218147,"198":-0.043956321752141654,"199":-0.18954595908550392}},{"sx":5,"sy":5,"depth":8,"w":{"0":1.0868196352315251,"1":-0.3256735703805003,"2":0.2646828536279528,"3":-0.2586505604626944,"4":-0.011828108420378219,"5":0.29394361296257965,"6":-0.13760715364280743,"7":-0.08000134653936612,"8":-0.12137154526517192,"9":-0.21766949829611862,"10":-0.35705129811047187,"11":-0.10694470229699829,"12":-0.2472730646908597,"13":0.30956190835731084,"14":-0.04463312080641903,"15":0.1832293092883626,"16":-0.35152149863617904,"17":-0.42735343861841635,"18":-0.40258754273230885,"19":0.002065082358883014,"20":-0.14304807369828546,"21":-0.1929808258550011,"22":-0.015662620884806865,"23":-0.19913087911265673,"24":-0.08471922547366723,"25":-0.0527538565331789,"26":-0.3292831829949974,"27":0.12687861087595517,"28":-0.23731087495637435,"29":0.07086009590959727,"30":-0.10540646698115423,"31":-0.4016713153010394,"32":0.4033684558588243,"33":-0.6926569018158576,"34":0.04253143591447797,"35":0.16255158580157755,"36":-0.22766200524812608,"37":-0.16123925413207874,"38":-0.002922774632186604,"39":-0.6639485319559187,"40":-0.12673356439761674,"41":-0.13280537474662635,"42":0.5062472449997972,"43":-0.25632254038680313,"44":0.0685969424840925,"45":0.29104340286697616,"46":0.037547449804057595,"47":-0.053425388599575824,"48":-0.31383201456458537,"49":-0.3449965158661558,"50":0.4093587527078497,"51":-0.2585025056219567,"52":-0.07985989235570308,"53":-0.13258589495256234,"54":-0.19211008318983167,"55":0.23609216520424367,"56":-0.5251089127803139,"57":-0.4483340587563172,"58":-0.002637387070731232,"59":-0.04064521732764946,"60":-0.39117716922665036,"61":-0.3775757337105809,"62":0.17646858962736936,"63":-0.46260086715003035,"64":0.0008805970591220533,"65":-1.3040709822757774,"66":0.10727181458645595,"67":-0.144482179636743,"68":-0.420826794725108,"69":-0.05452088934461549,"70":0.19708437190481212,"71":-0.7983348238580268,"72":0.0943831881081981,"73":-0.6004782014552091,"74":0.1659230411540748,"75":0.10878532175235822,"76":-0.1148942581449204,"77":-0.23044240807135585,"78":-0.023854291439637323,"79":-0.7037943918883288,"80":0.29577345781919157,"81":0.0894104409465182,"82":0.3204296928150004,"83":0.15395332706180576,"84":0.05348079322363198,"85":0.043841545893284754,"86":0.15698899600355484,"87":-0.6126666855913185,"88":0.6776480536628823,"89":0.1791375653413089,"90":0.16224783982666738,"91":-0.1864039038101681,"92":-0.05941177455912751,"93":0.17072490411858934,"94":-0.49051595234304035,"95":0.09956847636683101,"96":0.4539003490953826,"97":0.06507350369804074,"98":0.2309168516530773,"99":0.11087172090742733,"100":0.0809021333701949,"101":-0.15920917092029485,"102":-0.03870349066256299,"103":-0.06568396220562192,"104":0.13621802740020633,"105":-0.4075664209491838,"106":-0.048206353162407574,"107":-0.08538426816197214,"108":-0.0023199840459191593,"109":0.051511983120154765,"110":0.03268759742771031,"111":-0.6546199636484825,"112":0.6944435076829868,"113":-0.20761877228116962,"114":-0.20216492533321367,"115":0.09726560712818817,"116":0.12199350562670276,"117":0.2968087015373196,"118":-0.6032778677613908,"119":-0.5847294036922468,"120":0.0228700308496331,"121":-0.14158150305613004,"122":0.3736336966167338,"123":0.3233588054846152,"124":0.04571669434430063,"125":0.08126152158811925,"126":-0.12381910258589193,"127":0.10683947610394666,"128":0.20359386066885404,"129":0.2238648714119266,"130":-0.3212806376124611,"131":0.08669875649108044,"132":0.19504628844802335,"133":-0.026545916186992494,"134":0.0821957440549835,"135":-0.09646233564529338,"136":0.9773506532023194,"137":0.24967569158154881,"138":-0.27960964766209,"139":0.05139620649414681,"140":0.2798691191462263,"141":-0.07789324412558304,"142":0.3826921503963035,"143":0.339355623532003,"144":-0.5538861351537998,"145":-0.05181029260821955,"146":-0.18715812708658275,"147":-0.2386294878223165,"148":-0.023712906879327908,"149":0.1673197752461227,"150":-0.5448677842115753,"151":0.00868226790580132,"152":1.3974976878464596,"153":-0.1252972580320481,"154":-0.4480242187592293,"155":-0.14521327637298354,"156":0.00844744258743689,"157":-0.0282946259422834,"158":-0.34777446009446233,"159":-0.1422850800324118,"160":-0.40651493564264807,"161":0.005362478721758857,"162":0.2877700342517253,"163":0.13803130037441955,"164":0.29062227627401316,"165":0.06224626204685218,"166":0.19381631937146315,"167":-0.0037077554354657608,"168":-0.7166655507435965,"169":0.07986364055811417,"170":-0.16322670716257354,"171":-0.07133581263002024,"172":-0.3221440785959808,"173":-0.3006078951795264,"174":0.14018611763306152,"175":-0.39940048285241936,"176":-0.5805174036557793,"177":-0.2506941046761464,"178":-0.09723076075862007,"179":-0.03812169669753017,"180":0.12945835087895374,"181":0.06792900819145861,"182":0.44044725185440314,"183":0.1822118955228923,"184":-0.032146538543308206,"185":0.4047458732212013,"186":0.04636019507753662,"187":-0.20060148486901372,"188":0.23603369212896533,"189":0.20025980816660563,"190":-0.2162912661461481,"191":0.0703940109401249,"192":-0.1885325974766853,"193":-0.13558552065826693,"194":0.2733489209018572,"195":0.07568841751381042,"196":-0.27757352638085836,"197":-0.10769681514066044,"198":0.1381943243719093,"199":-0.11841210555734083}},{"sx":5,"sy":5,"depth":8,"w":{"0":0.41134068702893023,"1":0.37958328074077097,"2":-0.6025683734605358,"3":-0.2576031493804328,"4":-0.07449561400072627,"5":-0.3270994946657841,"6":-0.47302295299912783,"7":0.14364379372546393,"8":0.1813353617603664,"9":0.24088437022501288,"10":-0.1244707839315812,"11":0.0489023468202725,"12":0.42257293079574715,"13":0.3038954312108348,"14":-0.4063977028261928,"15":-0.1252269417386719,"16":0.2837308517837146,"17":0.4719898965820279,"18":-0.6310635773723697,"19":-0.0024714077419537624,"20":-0.09283456615819909,"21":0.1229277123723522,"22":0.2284219481031236,"23":-0.8055514176367068,"24":0.3467075980362432,"25":-0.3305530924066694,"26":-0.6727836963129703,"27":0.06657943367270654,"28":-0.34735784615224574,"29":-0.06834022023350057,"30":0.5445202900263854,"31":0.014618649632902943,"32":0.18508408915326932,"33":-0.2012462370569283,"34":0.9169479224867065,"35":0.14033192430082925,"36":0.2580567118369466,"37":-0.10071772785002661,"38":-0.4149981088123907,"39":-0.1087813035484675,"40":-0.42643064111001916,"41":0.13424940952458425,"42":-0.1159510047058367,"43":-0.08687103203276327,"44":-0.5128089702100249,"45":-0.5626561064706,"46":-0.09185964823303135,"47":0.09564983838955453,"48":0.01050170336347118,"49":0.37145979113871186,"50":-0.2752467291648237,"51":-0.1048131884789501,"52":0.23418410707884296,"53":0.07312377164437688,"54":0.1061697940296916,"55":0.44269955328745636,"56":-0.14467326227500812,"57":0.5234060895644405,"58":-0.38847502500087944,"59":-0.19235788129668366,"60":-0.23614142221156964,"61":0.39228868272731743,"62":0.25186722251161664,"63":-0.4735802865055996,"64":-0.20391260298741604,"65":-0.503295261836086,"66":-1.0250687433355428,"67":0.39887340352763384,"68":-0.13928039589168076,"69":-0.3363103017141452,"70":0.5099658027753858,"71":0.0009830726481010446,"72":0.4224728920052909,"73":-0.11438187482783603,"74":-0.359737830075797,"75":0.25139178741078133,"76":-0.02081258030848434,"77":0.2474868909036888,"78":-0.13967017818468463,"79":-0.2627663933734489,"80":0.04234630289422394,"81":-0.6393491730057981,"82":-0.39254421599435296,"83":0.11246525846151038,"84":-0.4382915486050545,"85":-0.08716196777270502,"86":0.021977222939399438,"87":-0.152569832186441,"88":-0.028352698904887712,"89":-0.07046666744128734,"90":-0.21211653156344443,"91":-0.0606196611317058,"92":-0.23729731512521066,"93":-0.15259347623878863,"94":-0.029832084539789968,"95":0.527348015703325,"96":1.432294080084893,"97":0.04933594185018249,"98":0.23929455727853569,"99":-0.04641202781130399,"100":0.5113666356456105,"101":0.3403872545750708,"102":0.7890793501896473,"103":-0.18066952408217216,"104":0.21553469445069837,"105":0.2050470397615187,"106":-0.5938626070883809,"107":0.24875658394928535,"108":-0.10665541328439623,"109":-0.23407703449041425,"110":-0.41260163575741765,"111":-0.1694818137038177,"112":0.2674442172861612,"113":-0.725822957459188,"114":-0.011746889680929132,"115":0.03703596888374329,"116":0.02987737777622699,"117":-0.30073769142351464,"118":0.4110867094041767,"119":-0.08609318000413672,"120":-0.252687128550515,"121":-0.37033509854408175,"122":-0.16742662003270053,"123":-0.1322550126152134,"124":-0.18363602917787342,"125":-0.2555889282225095,"126":-0.45371980514818383,"127":-0.059708820585589135,"128":0.3452660517013074,"129":-0.41761459003056045,"130":-0.3291644742890013,"131":-0.29946024007376354,"132":-0.1937596585871326,"133":-0.31551697874939666,"134":-0.2923409986080535,"135":0.3568330736708725,"136":0.02050892296527579,"137":0.4521880884882257,"138":0.1609743479156384,"139":0.0032587162670479606,"140":-0.021620109174988963,"141":0.28449752965644276,"142":0.12171672378979127,"143":-0.04638965326208067,"144":0.3815861745287717,"145":0.07149326396413357,"146":0.006855811580010191,"147":0.08635145785271738,"148":0.07913117185592078,"149":-0.03312830725706993,"150":-0.7218648394693697,"151":0.3509363261552196,"152":-0.3796075265372653,"153":-0.41585995884749094,"154":0.18236472489385416,"155":-0.25867598741850395,"156":-0.11750970192030807,"157":-0.3212939162583711,"158":-0.3957037572059992,"159":0.055218496411236904,"160":0.1265766651107933,"161":-0.13942442044888106,"162":0.1335679426092177,"163":-0.1823744348325803,"164":0.49963041637915717,"165":0.1525727238874913,"166":-0.24785356206224468,"167":-0.30553545069389537,"168":1.0600460265987544,"169":0.1908088667861244,"170":-0.39348234328085835,"171":-0.056746619999068694,"172":0.31436434686373194,"173":-0.18733121513241632,"174":-0.8559616817761825,"175":-0.039614911145407626,"176":1.104937439480045,"177":0.4946059687552343,"178":0.14160456708108513,"179":0.14064680750748385,"180":0.22238107540622126,"181":-0.2683679591080901,"182":-0.3867994215832383,"183":-0.011041893637906735,"184":-0.09918440299845363,"185":0.4001410709929599,"186":-0.1786918866275703,"187":0.3810570021160419,"188":0.1596715204715035,"189":0.17289719859240107,"190":-0.3478519564248438,"191":0.22716934293662,"192":0.5596366924106814,"193":-0.3440905326212636,"194":0.13694627079837668,"195":0.1912081384175806,"196":-0.05735392133833453,"197":-0.11880696203631656,"198":-0.28956549866071296,"199":-0.004139727293185444}},{"sx":5,"sy":5,"depth":8,"w":{"0":0.24780548849419584,"1":-0.029174060737078497,"2":-0.3203265147247034,"3":0.3846736848860445,"4":-0.1872267206889345,"5":-0.08799433915999962,"6":-0.05017265983233161,"7":-0.18645156048481118,"8":0.42303555435485923,"9":0.19707331767198633,"10":-0.19273277446475803,"11":-0.010779134944320838,"12":-0.04721523444177037,"13":-0.03445484287879828,"14":-0.22393971866176327,"15":-0.009224190295088603,"16":0.19906875760449466,"17":0.13067965491466538,"18":-0.3819510512526865,"19":-0.23430580377976154,"20":-0.15867339158620192,"21":-0.0555030116715841,"22":-0.2919517419095063,"23":-0.030852894512023728,"24":0.4313243979636292,"25":-0.10580688607659476,"26":-0.36060732434906406,"27":0.255011868259938,"28":0.21049527759142456,"29":0.02053994060426479,"30":-0.19692405686544762,"31":-0.5915510984181133,"32":0.20128276438452214,"33":-0.02464566058542149,"34":-0.6003119538880878,"35":-0.13060559794807072,"36":-0.253194484051682,"37":-0.2960873991398524,"38":0.09187391115215593,"39":-0.032137969014262205,"40":-0.23463211789778293,"41":0.06110173115709931,"42":0.0725678605081872,"43":-0.044389586253525536,"44":-0.15410278161240443,"45":-0.06619312298682906,"46":-0.07344176188907534,"47":-0.41767799174424236,"48":0.02577366686726182,"49":-0.1708556131458522,"50":-0.049804319260760954,"51":-0.007640170826552083,"52":0.1726683995047241,"53":0.14095293089387678,"54":0.23577194502062226,"55":-0.1622804733165063,"56":0.4031255610172396,"57":0.06430428007237486,"58":0.19401591590271722,"59":-0.395307478566372,"60":0.08257586470409665,"61":0.027435113085278233,"62":0.2736005455008283,"63":-0.022813972269463374,"64":0.9997434348673758,"65":0.18487235897615154,"66":-0.29110026666067557,"67":-0.7352356083822067,"68":-0.3019973170305582,"69":-0.033918355131288824,"70":-0.4605387317791263,"71":-0.29469005513970925,"72":0.5272988692979684,"73":0.06484206890839606,"74":0.273378770497872,"75":-0.34288113351664373,"76":-0.1585106126355579,"77":-0.8146782192339741,"78":-0.17287070080499214,"79":0.551167800991754,"80":0.7689167817188006,"81":0.42926966607890715,"82":0.1825310689504372,"83":0.12827771474704003,"84":-0.18820810072051958,"85":-0.25598618539274653,"86":0.21993793912902246,"87":-0.5257285235815877,"88":0.00032547526981516824,"89":0.04616017410150433,"90":-0.2498780281218117,"91":0.0760458507457284,"92":0.05426670675541449,"93":-0.5841232087760427,"94":-0.0486554006215102,"95":-0.16661399726849285,"96":-0.01884719786605182,"97":-0.5665379676818523,"98":0.20067208212311785,"99":-0.05180789295424485,"100":-0.20847135922374205,"101":-0.4849304048520003,"102":0.37219387410633603,"103":0.1657162757728677,"104":0.9480063000566892,"105":0.11169069875707553,"106":0.6710718120148725,"107":-0.12598064087151872,"108":-0.27599181017371066,"109":0.4550826180616107,"110":0.08012549830059704,"111":-0.1572720754592465,"112":0.9337586489614591,"113":0.30263318299216224,"114":-0.206893147449989,"115":-0.3810737979975069,"116":-0.2623859476761091,"117":-0.8826958396234531,"118":-0.09345084586135634,"119":0.9765701170850907,"120":0.060242484149655474,"121":0.23834757599400544,"122":-0.23833175450368,"123":0.16911871000794945,"124":-1.0093093362087204,"125":-0.2032769718335591,"126":0.09411153260255652,"127":-0.053952454855405785,"128":0.027754649850651694,"129":0.321514478677056,"130":-0.650322727469895,"131":0.41051721903027416,"132":-0.4313019473857191,"133":0.19241335859432535,"134":-0.10296922694627467,"135":-0.044834910507242365,"136":-0.10357945441682832,"137":-0.013502834625925737,"138":-0.46252425886190623,"139":0.2089898561341496,"140":-0.10380567734865605,"141":-0.2985816494317891,"142":-0.035832525410876025,"143":0.2651421750119674,"144":-0.46329383135147423,"145":-0.11925094099731443,"146":-0.3541039384822765,"147":0.0235125981464323,"148":-0.11474679313443954,"149":-0.23450083746658748,"150":-0.7772657623655324,"151":-0.28626956667012643,"152":-0.22087394703792002,"153":0.4904937405266779,"154":0.5797529780934331,"155":0.1523133445055187,"156":-0.31043670281026836,"157":-0.38342084601243304,"158":-0.26147272591537696,"159":-0.0071645497441677995,"160":-0.10629331804156074,"161":0.08539647263202839,"162":-0.1318600121495446,"163":-0.055283460714270316,"164":-0.4016032627271255,"165":-0.17654942294272913,"166":0.23722088407577283,"167":-0.16670888594182742,"168":0.2941991157582681,"169":-0.9119071844331307,"170":0.16039984881761724,"171":0.2297631420781672,"172":-0.04016458518720577,"173":-0.08105227596427866,"174":0.03301737632963836,"175":0.02139762947843722,"176":0.38440366379838614,"177":-0.32593052035105824,"178":-0.418687590589758,"179":0.06307981417931376,"180":-0.3119372126492257,"181":0.0816193096757327,"182":0.13019172489080122,"183":-0.13339003101543276,"184":-0.026989601637982027,"185":0.4317626865325098,"186":-0.1533139362678464,"187":0.03468012820830771,"188":0.030293679283926928,"189":-0.08960620500436486,"190":0.08955746321903041,"191":-0.02665187919720187,"192":0.6374036300814744,"193":0.19501165086604877,"194":-0.3400828150871391,"195":-0.4241607097523981,"196":0.5428786202732994,"197":0.14261004843253558,"198":0.11097522242298398,"199":0.03562641387322818}},{"sx":5,"sy":5,"depth":8,"w":{"0":-0.08726222479541602,"1":0.0417181122410988,"2":-0.3975257821224682,"3":0.16053268203141832,"4":-0.04119451327837376,"5":0.2295284923653468,"6":-0.21947381177671008,"7":-0.5905183152130732,"8":-0.1926320898391702,"9":-0.2116907367735908,"10":-0.5854680284389925,"11":0.1396235283607014,"12":-0.3065396965466798,"13":-0.2723311704345342,"14":-0.052486098822551966,"15":-0.63098898559018,"16":-0.13068463152915422,"17":-0.1603183678466114,"18":-0.01771726203535313,"19":0.18347446044929652,"20":-0.3621789130191797,"21":-0.4094480779577804,"22":-0.21231171097176507,"23":-0.5262050685945566,"24":-0.10097852018761261,"25":0.18669334158335116,"26":0.4412556075751487,"27":0.10134007391099352,"28":-0.018183707708312034,"29":-0.28684987720225646,"30":0.13518087628037845,"31":-0.08386672909962976,"32":-0.1874430974278799,"33":0.02022087198257084,"34":-0.017440066971169052,"35":0.10120054727876057,"36":0.10958630269359824,"37":0.3091070236177985,"38":0.11528349507465604,"39":0.27915611930157674,"40":-0.03190979150141248,"41":0.0671873949021907,"42":-0.16323459568180418,"43":0.13433825958918374,"44":-0.37133869032473216,"45":0.1442666407899605,"46":0.08291924407440514,"47":-0.042742326964367236,"48":-0.38417705737159585,"49":-0.2265963757312672,"50":-0.1434140843446524,"51":0.1445085098564719,"52":0.08669446363643547,"53":-0.1629106256332733,"54":-0.03681371097154644,"55":-0.44030944202500094,"56":0.1971990923876289,"57":-0.09509538317392512,"58":0.25451443566964654,"59":0.0199537979689237,"60":0.11274592929905435,"61":-0.10270437139192691,"62":0.7403078562252164,"63":-0.6440060621574862,"64":0.15959508985418672,"65":-0.11507552770366286,"66":0.1981255418389194,"67":0.08728986159060236,"68":-0.16582818919482606,"69":-0.35727538485776633,"70":0.42665883214679834,"71":0.07969375108296221,"72":-0.035581349365748846,"73":-0.35973311658621415,"74":-0.186960729261666,"75":0.07313517675976959,"76":-0.35588537478446264,"77":-0.6540259398848426,"78":-0.05678211934127464,"79":0.39352470781783905,"80":-0.1690302406568882,"81":0.3416410733114372,"82":-0.165619053585915,"83":0.08152211814027908,"84":-0.23456021678989525,"85":0.14749003315184728,"86":0.028459119039818043,"87":0.00764984958258003,"88":-0.7909362462473971,"89":-0.1841769460830224,"90":-0.17168994761959683,"91":0.06167336257277409,"92":-0.05295568481135711,"93":0.059796076987546416,"94":-0.5212838821144442,"95":0.14885826898337098,"96":-0.5398771346606401,"97":-0.6546546861353666,"98":0.3660558587352522,"99":0.14230878743333536,"100":0.008895687387964122,"101":0.029560550038957564,"102":-0.4533370599530698,"103":-0.31330154033947627,"104":0.23885699284905407,"105":-0.02924967613374972,"106":-0.04739284157887513,"107":0.19714862213726245,"108":0.16913158590398394,"109":0.051766692973534915,"110":-0.08404211938113378,"111":0.09913432355820688,"112":0.34058286634404894,"113":0.15806866567709046,"114":-0.6245809456387393,"115":0.20472538311201402,"116":-0.3370845380109076,"117":-0.4686788349674073,"118":-0.12963311626832422,"119":0.0696631766216755,"120":-0.48267915520699617,"121":-0.0007897910733698265,"122":0.16181159193618128,"123":0.18507092562114533,"124":-0.3389125691831631,"125":-0.1451318671069122,"126":0.11377011723922126,"127":-0.0727265417849554,"128":-0.5330203692045785,"129":0.03460158960059495,"130":-0.009757627987957354,"131":0.23130177732550922,"132":0.1508318044816722,"133":0.000748390892252636,"134":-0.1986953179181833,"135":-0.13096320886815455,"136":-0.6038624740614658,"137":-0.07589411977602074,"138":0.13492561696921954,"139":0.03646078797720811,"140":0.30554335705077734,"141":-0.11895227783233467,"142":-0.4855865519530986,"143":-0.477435776194543,"144":-0.14615836152342576,"145":0.3703056372143863,"146":-0.4066360969496576,"147":0.2817143724294766,"148":0.03111031652487077,"149":0.22036088755429428,"150":0.04717713248763433,"151":-0.046188891665884454,"152":0.13991908165309414,"153":0.25365582792253916,"154":-0.18253502357777046,"155":0.24837721681096106,"156":0.05644264295726809,"157":0.04433560470479315,"158":-0.23048558607247455,"159":0.005714977760123974,"160":-0.6026260766946095,"161":0.03353840095254398,"162":0.09283463421791865,"163":0.2066237603481407,"164":-0.10763128550441624,"165":0.2501117951995186,"166":-0.07930160931008577,"167":0.006377211066857609,"168":-0.44421448998112323,"169":-0.09601185582887735,"170":-0.34335199454228493,"171":0.26142621432505264,"172":-0.07932027127713599,"173":-0.28198323242977635,"174":-0.5729288799040615,"175":-0.10178179751595934,"176":-0.14712120652150462,"177":-0.03412905344476696,"178":-0.14862490837307946,"179":-0.016507674225932065,"180":-0.06571789987335447,"181":-0.06765467028189721,"182":-0.620327986642182,"183":-0.022143999369214313,"184":-0.349850147123801,"185":0.0734868870526961,"186":-0.31661621309774596,"187":0.024532135125301002,"188":0.05441245043169973,"189":0.25937519090660793,"190":0.08537354335289495,"191":-0.10058660803385913,"192":-0.2623382373219814,"193":0.16696981122330604,"194":-0.2937444286382951,"195":-0.21544816980085893,"196":0.16379596818754696,"197":0.07181305069536612,"198":0.057546420931910175,"199":0.17090157986800047}},{"sx":5,"sy":5,"depth":8,"w":{"0":0.5554673049277319,"1":-0.015919982448572324,"2":-0.24675115253302074,"3":-0.09563991935120995,"4":-0.30721186557764635,"5":0.04646988465145331,"6":-0.06013619372013595,"7":0.04854710039559421,"8":0.1779988325329361,"9":-0.32731057787681367,"10":-0.11703213715513285,"11":-0.08998243145912828,"12":0.35838990373611557,"13":0.051020936156603816,"14":-0.057239974107,"15":0.39557187566565427,"16":-0.13053386659583502,"17":-0.2204846877612613,"18":0.22345196443012408,"19":-0.19329765009546399,"20":-0.18345723513742127,"21":-0.1561897637708972,"22":-0.1480835769102374,"23":-0.2847104605142621,"24":0.5068959573473087,"25":-0.27989619135492627,"26":0.1074168714150354,"27":-0.17390247003098855,"28":-0.014857541741755754,"29":-0.38706286390434624,"30":-0.47533080144908013,"31":0.09810066426780294,"32":1.069783698453413,"33":-0.018582007205041842,"34":0.003239944995638623,"35":-0.06679934282099427,"36":-0.055899103267728956,"37":0.06723423532957377,"38":-0.15255215357230045,"39":0.10808863521715939,"40":-0.3896851672327858,"41":-0.09927600937307364,"42":0.06583772576587371,"43":0.04319436479166228,"44":0.325194009622831,"45":0.15918973478479248,"46":0.42368702550901105,"47":0.15544933879034284,"48":-0.8502362146590571,"49":0.39767483673231635,"50":0.21426139308252212,"51":0.03114918478309716,"52":0.13131786214673707,"53":0.20310728152957086,"54":0.22102924991522707,"55":-0.2805957317612501,"56":-0.578250263794074,"57":-0.01376783108562755,"58":-0.2515058821442858,"59":0.09835036863675418,"60":-0.10573365188711077,"61":-0.009894062314089382,"62":-0.46697686173978337,"63":-0.6293243941439581,"64":-0.06878352000147198,"65":0.3293244091052208,"66":0.21113312410263413,"67":0.03835786898837807,"68":-0.11319267869110124,"69":0.04878667292916068,"70":-0.4311193399687098,"71":-0.7566095796922134,"72":-0.4524812610593129,"73":0.31965171723895847,"74":0.23375253324634498,"75":0.004141685421308173,"76":0.01043815045070291,"77":0.302523088058878,"78":-0.1067854563341984,"79":-0.07736081079359672,"80":-1.0436587524893035,"81":0.11329925634995243,"82":0.2115733553158816,"83":0.29962963521224284,"84":0.13777363546091234,"85":0.040960587534416296,"86":-0.0032260281811213234,"87":-0.06468007407279398,"88":-1.0575608565327188,"89":-0.0412088303209307,"90":-0.327962333591645,"91":-0.00013631522518065702,"92":-0.00933964362476211,"93":-0.6804429945085847,"94":0.14779373357867684,"95":-0.741202583963339,"96":-0.29631832378747525,"97":-0.01742235905961106,"98":-0.24394591901294618,"99":0.20100121916713884,"100":-0.11702660353368528,"101":-0.5830917187289264,"102":0.06988718383801906,"103":-0.426533602023813,"104":0.2657580053839182,"105":0.14596312195379624,"106":0.11289389812650896,"107":0.19540167406282438,"108":0.11076009642899179,"109":0.21108365792903644,"110":-0.27990459438059506,"111":-0.23845965818696774,"112":0.04981933545108265,"113":0.19373969979170347,"114":0.32607312000796157,"115":-0.185921796349107,"116":0.39070362112331314,"117":0.07479837292159794,"118":-0.4893972304150306,"119":-0.0017841496225703842,"120":-0.1511656700986521,"121":-0.24704608896521055,"122":-0.4786007489409692,"123":0.26267551979702797,"124":0.17656604804241074,"125":-0.6509092389148575,"126":-0.19221785905615277,"127":-0.6711650013238996,"128":0.033540663682345616,"129":-0.6377009625813294,"130":-0.46713164723521594,"131":0.14663594858339155,"132":0.4413746625062251,"133":-0.6933707158211208,"134":-0.20455682508070303,"135":-0.6820751791540127,"136":0.0705518297823013,"137":-0.1678841366026316,"138":-0.20311653168874963,"139":0.02975183585049751,"140":0.15048426615575328,"141":-0.1758139591536987,"142":-0.3448314242249587,"143":0.10828560848513308,"144":0.5907474052998113,"145":0.2965013652617661,"146":-0.07864196353549294,"147":0.01730499772020643,"148":-0.21527335077552218,"149":0.18777279884696504,"150":-0.2407165129419894,"151":0.06171451201734919,"152":-0.03952390055193522,"153":-0.09449286027303333,"154":-0.18920583334812782,"155":-0.23209460598842482,"156":-0.1655249687166991,"157":-0.013106098688277673,"158":-0.2724316097494107,"159":-0.10180079639515291,"160":-0.4838405750431514,"161":-0.15998016603406215,"162":-0.3697571355073708,"163":0.3811840412870566,"164":0.4040827827816121,"165":0.34813656866819837,"166":-0.5472208497164348,"167":0.15440673633378846,"168":-0.2880050525129047,"169":-0.1418982213679051,"170":0.17148830928705602,"171":-0.16371622414925174,"172":0.35764906176590344,"173":0.16525277683419023,"174":-0.18305561897795902,"175":0.4886405646374194,"176":-0.9645404379446364,"177":0.6531577778603603,"178":0.04994208633253966,"179":-0.16707038520827988,"180":0.08036658089538329,"181":0.41912340266670406,"182":0.268661960224078,"183":0.5680291993680816,"184":-0.3399010844113658,"185":0.11362938475701298,"186":-0.19680936349160935,"187":-0.19633835243878583,"188":-0.2489895466350979,"189":0.16135960116648426,"190":0.0072830595447284105,"191":-0.18927707834156682,"192":0.5441418597808676,"193":-0.22920623871385903,"194":-0.19531850542740764,"195":-0.3929874184068072,"196":0.011210215489934491,"197":-0.27453608694013215,"198":-0.20095799562982183,"199":-0.18963031988700116}},{"sx":5,"sy":5,"depth":8,"w":{"0":-0.6106350319061408,"1":-0.378038992542246,"2":0.028928493343529153,"3":-0.2032444970630791,"4":-0.5345868039781714,"5":-0.23750822581901543,"6":0.00999127795304572,"7":-0.26854017794482576,"8":0.031573205233290415,"9":-0.4278553599750559,"10":-0.020211498306527884,"11":-0.43454261112545517,"12":-0.009203351206741782,"13":-0.3077626487986143,"14":-0.005458983606799683,"15":0.19878214655508186,"16":-0.36878295509755044,"17":0.20150925500594696,"18":0.35575292369528405,"19":-0.05010689449149136,"20":0.3825081410836553,"21":0.19002102921713404,"22":-0.5742837802924375,"23":0.2643230901141501,"24":-0.49363037352669914,"25":0.5245394421966824,"26":-0.4911071725334929,"27":0.024191906229976627,"28":-0.11824300412251432,"29":0.5306008066137937,"30":0.4451683434026156,"31":-0.03496165408762472,"32":-0.7810248390729171,"33":-0.1803233744053592,"34":-0.11981523373046762,"35":-0.2417733481058728,"36":-0.24707164610015211,"37":-0.418721694209167,"38":-0.17477401903837586,"39":-0.2994078369798161,"40":-0.8191251269508083,"41":-0.20433081455214977,"42":-0.19727226042068635,"43":-0.09335222178396618,"44":-0.4380502347418211,"45":-0.3546841622181953,"46":-0.24106735840182564,"47":0.150732756487939,"48":-0.027290313565179334,"49":-0.14671974477138966,"50":0.21713846819037538,"51":-0.43525995262714984,"52":-0.009665361625142123,"53":0.32369094290718253,"54":-0.11673966432801992,"55":0.0580850230087784,"56":-0.1006503877084658,"57":0.14990547676976335,"58":0.34509693928822377,"59":-0.39984994667545426,"60":0.648751803474739,"61":0.06896550559696399,"62":-0.08819562087223877,"63":-0.06222389549807658,"64":0.05497757280087739,"65":-0.46321596004081317,"66":0.04227706523643764,"67":-0.10394651764092412,"68":0.13464821334659846,"69":-0.8296748687849061,"70":0.5246735423818886,"71":-0.1721141964432569,"72":-0.11345966346753106,"73":0.06523805838776771,"74":-0.4163640776001771,"75":-0.14279973870434215,"76":-0.8154779868308647,"77":-0.619517052554342,"78":0.3955228852142489,"79":-0.8835942185556657,"80":-0.6772122932551468,"81":0.049581889363076725,"82":0.04300560491741676,"83":-0.2961360074974965,"84":-0.6734726700620812,"85":-0.11117549162180179,"86":-0.18747671273200808,"87":0.5967180240367023,"88":-0.021971313703952992,"89":-0.271472783682818,"90":0.05795115178215667,"91":-0.08039575818208597,"92":-0.17510393101149666,"93":0.43594580317978365,"94":0.5805337656627078,"95":-0.1554967297102641,"96":0.32377020753415514,"97":0.3302368739752964,"98":-0.1899401009832257,"99":-0.05466224240961,"100":0.15950129419126505,"101":0.5265321052184694,"102":0.2186592121956112,"103":-0.1298750526519106,"104":0.5049372681872132,"105":0.04168910673614285,"106":-0.480802173239412,"107":-0.1208545895462967,"108":0.16437674549896691,"109":0.15112277673701108,"110":0.22993473768908573,"111":0.3275801643744037,"112":0.20285529121659668,"113":-0.032794614561790274,"114":0.05171410991386479,"115":-0.005085935210465916,"116":0.03468152724254736,"117":0.04987018473412579,"118":-0.028820494987984967,"119":0.030938418243985938,"120":0.20513163104296636,"121":-0.5219518710663239,"122":-0.22550207854908455,"123":-0.20507012365087177,"124":-0.9339722564974587,"125":-0.5013841955542759,"126":-1.0833559430638462,"127":0.39980136729244237,"128":-0.1120413961774694,"129":-0.527472081685954,"130":-0.19260646592362304,"131":-0.16828839114192695,"132":-0.6571445114034504,"133":0.12162729132740051,"134":-0.3375101491975925,"135":-0.10031069333422345,"136":-0.1426398838044527,"137":-0.05137093368688252,"138":-0.4462394864106592,"139":0.024258177859751796,"140":-0.21588468139272898,"141":-0.20561128924673597,"142":0.4375403348330622,"143":0.13330466587235806,"144":-0.12009930873532641,"145":0.46537315340635926,"146":0.14352842485694814,"147":-0.11580103078919084,"148":0.20792493580735802,"149":-0.12072090565816071,"150":0.02001100370716816,"151":0.04682833876182511,"152":-0.3696314703156301,"153":-0.020979705983106067,"154":0.11976090845137498,"155":0.039957712706064206,"156":0.3727926583430892,"157":0.13020875479332364,"158":0.08209038189121615,"159":0.22545125284552442,"160":-0.0814379347324252,"161":0.050029772281086814,"162":0.12967389011806613,"163":-0.13314412759944766,"164":-0.5280737530746767,"165":-0.3602404111269915,"166":-0.8292425600616451,"167":-0.035808051776340534,"168":-0.3440722619894466,"169":0.12373098180900295,"170":-0.2229322851777384,"171":-0.09937919677647648,"172":-0.44810962652143127,"173":0.42725632407094627,"174":-0.7836408997807865,"175":-0.12550188890565692,"176":-0.8187354568621159,"177":0.024467333003370347,"178":-0.14067922560734009,"179":-0.11319505451386258,"180":-0.3591798887430557,"181":-0.44466205774201106,"182":0.02535622139615881,"183":0.2631295151164765,"184":0.2263236233232866,"185":0.20715278317174055,"186":0.07085156760209946,"187":0.17955139899431222,"188":-0.21204385226749195,"189":-0.07733491890439566,"190":0.18692073896945627,"191":-0.07066930342412697,"192":-0.023811203161559755,"193":-0.2696953965302532,"194":0.21947295278333726,"195":0.2685898444181843,"196":0.32528151271840655,"197":-0.2231424364586748,"198":-0.13453892577402063,"199":-0.24108448133779956}},{"sx":5,"sy":5,"depth":8,"w":{"0":0.40564026659909264,"1":-0.23902713169223538,"2":0.15038304376778047,"3":0.023662252667319528,"4":0.039368684267189986,"5":-0.09006012480245415,"6":0.08226507619140068,"7":-0.11037322764152534,"8":-0.2822046362527893,"9":-0.01250439325412027,"10":0.3169672176962169,"11":-0.07802967234564054,"12":0.24420399781645571,"13":0.05375521928453541,"14":0.3246130692501706,"15":-0.43180239677921356,"16":-0.4626041125827426,"17":0.058209685791922317,"18":-0.21668980742376462,"19":0.02814848177486526,"20":0.12608354348705195,"21":0.014766710239432202,"22":-0.45579858908033977,"23":-0.12014573703857273,"24":-0.19054152995057652,"25":-0.06411315008725438,"26":-0.10476483695679577,"27":0.15341557319295074,"28":0.17317130216185112,"29":-0.11611221999795901,"30":0.018486333066976106,"31":-0.28207616759289633,"32":-0.8278125251063808,"33":0.0002462466891699108,"34":0.2479713624184315,"35":0.3682754081979357,"36":-0.10996087238687853,"37":-0.09927967483353355,"38":0.06334264747377681,"39":-0.5756036967143447,"40":0.4973335336702723,"41":0.07961092163162087,"42":0.32876180413752537,"43":0.16112541403590874,"44":-0.008535173416835242,"45":0.035576695204314175,"46":0.23264806723267925,"47":-0.1558415025381918,"48":-0.07142235633147924,"49":-0.06601627173247288,"50":0.20350761280218524,"51":0.004517652675811069,"52":-0.24021898301444727,"53":0.10197357330021126,"54":0.48415386852118725,"55":-0.2822608599641185,"56":-0.5574242998177145,"57":-0.08659987463637583,"58":0.08090246790217316,"59":0.06291998908687317,"60":-0.4098531139058261,"61":-0.19657974392018773,"62":0.07347665055961473,"63":-0.31293861596274103,"64":-0.5540312449597262,"65":-0.39358357906465574,"66":-0.10138780264759151,"67":0.14637498749939687,"68":-0.4435631091144052,"69":-0.03367415258395178,"70":-0.10389600733845406,"71":-0.6498476524267639,"72":-0.4718088175000902,"73":-0.4287517912335641,"74":-0.3349190833011209,"75":0.5798935308665446,"76":-0.14118982963916715,"77":-0.30023856491521256,"78":-0.2571237120841547,"79":-0.5188304391813151,"80":0.20522134905041628,"81":0.21819074363795588,"82":0.049279892089294855,"83":0.12116973866784383,"84":0.07475798686813666,"85":0.2123250519461384,"86":0.3942368463274694,"87":-0.4766076902464952,"88":0.16185522435655328,"89":0.16311733740825288,"90":-0.13953965566540283,"91":0.07178132333290217,"92":0.12362452627807421,"93":0.1736085347235341,"94":0.27137613555762,"95":-0.31105208458522743,"96":-0.45888059867291314,"97":0.11408738026822351,"98":-0.17170953776012676,"99":-0.2209746781782356,"100":-0.02556991814094571,"101":0.3737640844167952,"102":-0.11061608668852739,"103":-0.8348383880505933,"104":-0.1665503722797823,"105":0.30135748717384986,"106":-0.10186565135240254,"107":-0.0506799102556653,"108":0.2535214158665118,"109":-0.20206283295716043,"110":-0.4199587690582081,"111":-0.6641046803155554,"112":-0.10855958781476673,"113":0.13914587497947667,"114":-0.43627004581608464,"115":0.23735425548964784,"116":0.35282052456813334,"117":-0.11182836815247481,"118":-0.3327034959168586,"119":0.10578670218120924,"120":-0.029718510442919215,"121":0.3871163356443309,"122":-0.381379411516288,"123":-0.2693103420524471,"124":0.20712507442134817,"125":-0.2505038170293732,"126":0.34175626872369935,"127":-0.5248088955154746,"128":-0.2769767540662589,"129":0.14239369765766835,"130":0.022571366175683675,"131":0.015443159891011216,"132":0.0886334875277985,"133":0.2052544336504642,"134":0.21239239236548932,"135":-0.1828777172154795,"136":0.11570773443701894,"137":0.1531293188023388,"138":-0.027060685563209782,"139":-0.4163089548980037,"140":0.04181647866110742,"141":-0.025897795171612198,"142":-0.24387097897061502,"143":-0.7854993838461967,"144":-0.10472559237639914,"145":0.11456199946246914,"146":0.07762459628686713,"147":-0.18854535651524768,"148":0.02959725069203971,"149":-0.5112580418099394,"150":-0.6472203326057824,"151":-0.05864124364910181,"152":-0.29118875776379677,"153":0.39255625861119664,"154":-0.3325035688285424,"155":0.02029492172011082,"156":0.3818739546851609,"157":0.09582756196470907,"158":-0.7270282568029274,"159":0.35194183590594286,"160":-0.32091796752907953,"161":0.11147329535881953,"162":-0.23186766869391848,"163":-0.3621751438883775,"164":0.19516995016962596,"165":-0.3446595478890649,"166":-0.2024390080947745,"167":-0.017461633218066708,"168":-0.0719430128322202,"169":0.12031513016961627,"170":0.024219300560620837,"171":-0.2762311824922357,"172":-0.12007611906693719,"173":0.08331522033293115,"174":-0.2151126444535495,"175":0.061706390144652075,"176":-0.30214468581257115,"177":-0.19484357444903277,"178":-0.500621033433384,"179":-0.3121636872143976,"180":-0.15934627706701565,"181":-0.0692108767773679,"182":-0.6673179726484793,"183":0.19835752132848888,"184":-0.35829298353611516,"185":0.09637998501630247,"186":-0.12685803016654162,"187":-0.5004461959019173,"188":0.16020768151083212,"189":-0.27425835231216744,"190":-0.27854836497308216,"191":0.48614080351452044,"192":0.226125476082924,"193":0.18340801143311938,"194":0.034556703414059656,"195":-0.02235684508187457,"196":-0.3934198369648004,"197":0.11037504907481628,"198":-0.38318252745620407,"199":0.16252332756590976}},{"sx":5,"sy":5,"depth":8,"w":{"0":-0.1819215535156599,"1":-0.3512320009889558,"2":-0.38461498912788455,"3":0.02360567170635383,"4":0.19210666617833017,"5":0.07357361515482704,"6":-0.3452675270069868,"7":0.21218120820119182,"8":0.12054316698905232,"9":0.1148583633769208,"10":-0.4605225049322217,"11":-0.15538099726730284,"12":0.11276405370149223,"13":-0.2526019698025922,"14":-0.49083084582642095,"15":0.4947182820524268,"16":-0.04514144722386533,"17":-0.007467328368570454,"18":-0.19318315109906428,"19":-0.11529960131479366,"20":0.06364582243601223,"21":0.13229248446587255,"22":-0.009255545751959094,"23":0.21266766639666734,"24":-0.4880984677897277,"25":-0.16922433601844375,"26":0.03622865830913965,"27":-0.3131517231359733,"28":0.22775815309316436,"29":-0.25509921039161226,"30":0.32857420232764983,"31":-0.16981399602200123,"32":-0.5514130343508238,"33":-0.01440410659644524,"34":-0.28512437185537115,"35":-0.22355348012816137,"36":0.11120180267318405,"37":0.003718802623286157,"38":-0.029644428639325815,"39":0.3692782986506588,"40":0.16468670418873438,"41":0.17581097511206945,"42":-0.045572521622268845,"43":-0.3763391805096806,"44":-0.14730338927771758,"45":0.11097559956173915,"46":0.21277835076961615,"47":0.24698705324229447,"48":0.20316570430146894,"49":-0.1922057719799315,"50":-0.009427988238626485,"51":-0.23849659678684756,"52":-0.750609109564818,"53":-0.34596988760072217,"54":0.2876421500685048,"55":0.37657806526020365,"56":0.0805807973977418,"57":-0.31231459404157524,"58":-0.09624478616795111,"59":0.0034350589814315944,"60":-0.5576506488966527,"61":0.17502504545102884,"62":0.15755729348364472,"63":-0.2928303122786924,"64":0.034816503087655624,"65":0.20375024070301348,"66":-0.3843270309565579,"67":-0.23110835279114095,"68":-0.3793314824525353,"69":0.16051934089224384,"70":-0.2070012051544509,"71":0.11960907744661353,"72":0.5221036135864676,"73":-0.12900812623744712,"74":0.4184414386525468,"75":0.04735325226335115,"76":-0.4001937657250902,"77":-0.11679477233400411,"78":-0.18680177996648914,"79":0.2192946225864186,"80":-0.4311715881789463,"81":0.5971581231557929,"82":-0.6296214536428236,"83":-0.3752640543812805,"84":-0.07156670011186197,"85":-0.032880176785848425,"86":-0.24864788440320243,"87":-0.16769303810521996,"88":0.234799326661897,"89":0.3078743272189752,"90":-0.10478594048221916,"91":-0.2636090143846179,"92":0.047384554028192395,"93":0.042904556098933844,"94":-0.16935846032796048,"95":-0.019455974537585474,"96":0.6817340640019093,"97":-0.34927745065078575,"98":0.4137284077294541,"99":0.1384735135571146,"100":-0.03928007111393296,"101":0.2566932848245267,"102":0.7155224291755701,"103":-0.653709008994849,"104":0.6745130144295729,"105":0.15432318837065315,"106":0.2903998378333122,"107":-0.04905702009537963,"108":-0.1976245208075514,"109":0.3611679197167215,"110":-0.03356183185385521,"111":0.22453247892263903,"112":0.13191889436086168,"113":0.3363514242582989,"114":-0.09739666988423328,"115":0.13938008306804311,"116":-0.019080380551634444,"117":-0.16257079490645646,"118":-0.43394252998229044,"119":0.2933673152297974,"120":-0.18795275269933973,"121":-0.33732374643558183,"122":-0.24720831913094238,"123":-0.1813263492665138,"124":-0.08995421972305642,"125":-0.16653840221166372,"126":-0.31703864409784754,"127":0.11745451032269583,"128":-0.24400939779882933,"129":0.20595739951913197,"130":-0.05767760235232187,"131":0.09323839586455446,"132":0.009522940540109647,"133":-0.22031334200668135,"134":-0.27440920598726176,"135":0.019174965391651817,"136":-1.2876730401945904,"137":0.04226795797085046,"138":0.09082545120788575,"139":0.046725495291643666,"140":0.1260454445456417,"141":-0.41370399324456153,"142":-0.1318885522293672,"143":-0.5411211644766708,"144":0.00480507711510585,"145":-0.2185259366807006,"146":0.25903686321382186,"147":0.19163291059669968,"148":-0.045238717797919825,"149":-0.04739877024036255,"150":-0.15017458840025272,"151":-0.08985960033105848,"152":0.17285716585290703,"153":0.4352491947087132,"154":0.24226678809749314,"155":0.12155416476529683,"156":-0.3969489083296932,"157":-0.42299321118901,"158":-0.8368713146409513,"159":0.2402771014185718,"160":0.5237462043013417,"161":-0.15112544524749347,"162":0.38745832308334643,"163":0.118841276760422,"164":0.1625513973548708,"165":-0.46471971958868313,"166":0.23129627222665594,"167":-0.0805013487962877,"168":-0.670511150947259,"169":0.28864212546532164,"170":-0.30030587989976026,"171":0.23824970088458863,"172":-0.7636872054750875,"173":0.22418211788310302,"174":-0.06083865293044629,"175":-0.30546895265554114,"176":-0.45405576189612323,"177":-0.07489788583033911,"178":-0.07565252650801904,"179":0.17193405526246508,"180":-0.16165681034574422,"181":-0.18454855314724575,"182":0.023941202826361096,"183":-0.04397892427232743,"184":-0.2880868960515181,"185":-0.0811581438286171,"186":-0.11064111682190982,"187":0.23996947939404492,"188":0.014044693380681489,"189":0.06898461376721582,"190":-0.3638859275228037,"191":-0.18521471522521807,"192":-0.03433433269255912,"193":-0.34977698001572477,"194":-0.03734905400799749,"195":0.003991700348617124,"196":0.4846129680883464,"197":-0.1361936691672519,"198":-0.014504168124588717,"199":0.17757559715846435}},{"sx":5,"sy":5,"depth":8,"w":{"0":0.19568168487655005,"1":0.23527384491850092,"2":-0.33269809508287046,"3":-0.07192174952133354,"4":-0.25328561207959593,"5":0.5110335360392304,"6":-0.7773156405677912,"7":-0.0484748476170334,"8":-0.4974443745858459,"9":-0.07982815309388755,"10":0.40012409444716457,"11":0.12674602188599873,"12":0.05665155253734369,"13":0.4016055531064282,"14":-0.8019510461682392,"15":-0.28607544615688546,"16":0.3228529563436309,"17":0.2575575710707001,"18":-0.5141965907549374,"19":0.1626657843003825,"20":-0.16389610462073936,"21":-0.2638846687674693,"22":-0.016684129226354146,"23":0.14298965079870687,"24":-0.06074391604965009,"25":0.19189352369889043,"26":-0.17093381676380437,"27":0.2866905558673686,"28":0.15275556176571112,"29":-0.02787582796331388,"30":0.21334387133748464,"31":0.06486747540620796,"32":-0.20334029225588093,"33":-0.437561498119822,"34":-0.2322620528033528,"35":0.15881156656385054,"36":-0.1534894720851024,"37":0.08340967445404145,"38":-0.07132439783721924,"39":-0.027168244251593178,"40":0.7818338928972197,"41":-0.2936360597569268,"42":0.0645131501581649,"43":0.013466182991117445,"44":-0.1160851203457833,"45":-0.17124617231463873,"46":-0.43639570690227614,"47":0.33073801596448654,"48":0.1786375607717779,"49":-0.2898199128955517,"50":0.03483008047205314,"51":-0.2161552316788281,"52":0.35863823128985883,"53":-0.2487727673783763,"54":-0.5484882402621,"55":-0.018092355246031464,"56":-0.06593859584869491,"57":-0.22740103210963625,"58":-0.02572432413642828,"59":-0.08389764638743091,"60":-0.18250327499519198,"61":0.058196921508673075,"62":0.007045800585241751,"63":0.018913055329443908,"64":0.2306388104294307,"65":-0.10425766949087514,"66":-0.3223621446616216,"67":-0.05612004684786669,"68":-0.6516509868738409,"69":-0.7771852070691283,"70":0.09242625337778214,"71":0.19550529978204573,"72":-0.019349870649595983,"73":0.1387037088841108,"74":-0.43020705847598106,"75":0.05931767964325507,"76":-0.8753026076678038,"77":-0.11388940556668962,"78":0.16108617734973366,"79":-0.022427795612132602,"80":0.066967117533192,"81":0.3865858981247781,"82":-0.044997869444600706,"83":-0.2713222768162577,"84":-0.02789554424610413,"85":-0.364153545114329,"86":-0.5108613671058702,"87":-0.5463337243951618,"88":-0.7111280396751213,"89":0.18597710571880144,"90":-0.10797929414835149,"91":-0.08551530557525013,"92":0.80113326744405,"93":-0.09388740394916514,"94":-0.975121286126801,"95":-0.23024727320543661,"96":-0.24271156363933696,"97":0.5543449324671409,"98":-0.20055410060740306,"99":-0.3391149036932031,"100":0.4578287737220993,"101":0.40724661022519865,"102":-0.7639407327427182,"103":-0.6078690713934485,"104":0.31266656477902577,"105":0.41897059035626066,"106":0.26089445795097205,"107":0.08065266339214461,"108":-0.16717854454735379,"109":-0.3749902884955432,"110":0.017718246431697397,"111":-0.37843110563448695,"112":0.4149418451417527,"113":-0.5163302277739354,"114":-0.3036400561833229,"115":0.29813390242800325,"116":-0.18196028476462234,"117":0.06818354132076966,"118":0.2838449659025421,"119":-0.02667026777659843,"120":0.2294939896675404,"121":0.33930113654715893,"122":-0.26001030434154493,"123":0.030334917302699348,"124":0.09637482582003058,"125":0.053240944581258505,"126":-0.26792957355302927,"127":-0.18660447150560158,"128":0.0684920229567704,"129":0.34326943763440027,"130":0.1828518960827381,"131":-0.1811003716112655,"132":0.10150833172032696,"133":-0.02953847062103013,"134":-0.29118392816353994,"135":-0.18419745943905413,"136":-0.3735096990415003,"137":0.23634634625070422,"138":-0.1351746695969124,"139":0.07562526364098639,"140":0.013967118346661433,"141":-0.14446124326505005,"142":-0.26013074001548586,"143":0.11419623319539231,"144":-0.014565842515070265,"145":0.2345828851012294,"146":0.10951962580813132,"147":0.08101401563922045,"148":-0.28013742818950105,"149":-0.1158020596432397,"150":-0.18090737489631423,"151":-0.04789495753139389,"152":-0.19792459515595506,"153":0.000037335472802239465,"154":0.02245201094580951,"155":0.3059061196954462,"156":-0.10654967765232269,"157":0.061693534048680485,"158":-0.005975051113242848,"159":-0.2594807893350472,"160":-0.012653692954935862,"161":-0.3469659153992026,"162":0.02621920203370337,"163":0.1048986068013035,"164":-0.0001636473690087649,"165":-0.09382006298846092,"166":-0.1962457979670783,"167":-0.3641325514168106,"168":-0.06046168135466849,"169":-0.03980867741520024,"170":-0.01554893591829995,"171":0.038476576518691984,"172":0.1671964717362748,"173":0.16502188900840276,"174":-0.45561916440618366,"175":0.06648824674115335,"176":-0.19863456121643572,"177":-0.26365162213981236,"178":0.02378570305149682,"179":0.028001227348115783,"180":0.06228849541380396,"181":0.06957610591941898,"182":0.2947658511043393,"183":0.15217068491829583,"184":0.34737498802875755,"185":-0.4310698123827353,"186":0.0007285064696960573,"187":0.0014880897056322815,"188":-0.48332325652353353,"189":-0.17998244327433316,"190":0.32212169919220135,"191":-0.02379218885736364,"192":-0.02309381296576284,"193":-0.4618684441751376,"194":-0.37100836681315597,"195":0.14632661023553858,"196":-0.28242873258233303,"197":-0.41754982896783,"198":-0.20380595883085922,"199":-0.049180918363378213}},{"sx":5,"sy":5,"depth":8,"w":{"0":0.15491011955387682,"1":0.437427035826575,"2":-0.19210583792800937,"3":-0.882985344387561,"4":-0.030196613383645463,"5":-0.05155314674930715,"6":-0.11595234055330615,"7":-0.30497469301165353,"8":-0.8126163962098135,"9":-0.27060073092148984,"10":-0.20328697043370778,"11":-0.4646644968576948,"12":-0.3745716267096483,"13":-0.12707580009459166,"14":-0.1878338276912769,"15":-0.052499171020451874,"16":0.2550310293043246,"17":-0.27553117904001173,"18":-0.11112646847345271,"19":-0.0840280607642185,"20":-0.5959553352039125,"21":0.8541941634320386,"22":-0.16111828413885246,"23":0.09500132215004257,"24":-0.34277284994795487,"25":-0.520872913949802,"26":-0.3561578997352698,"27":0.09203984991779268,"28":-0.2292546817804642,"29":0.12316552903669815,"30":-0.23759133410969957,"31":-0.3736526948975834,"32":-0.5279052382399542,"33":-0.6419113242503752,"34":-0.6411679062161536,"35":0.253229479052669,"36":-0.20801017747123585,"37":-0.10986910439718908,"38":0.3717669910012935,"39":0.07336611407198913,"40":-0.20941999703483868,"41":0.5703713795395803,"42":-0.41790779327126526,"43":-0.7736706224072836,"44":-0.35938711332197454,"45":-0.48502966446253765,"46":-0.45743643780525856,"47":0.4402334011362523,"48":0.43295876850415993,"49":-0.28217388666075915,"50":-0.09344921825628057,"51":-0.6587396246009412,"52":0.14907002190606522,"53":-0.5426730213383603,"54":-1.0188871355788105,"55":0.7200377647860179,"56":0.8060539421334454,"57":-0.49491271378545,"58":0.33103907929418375,"59":0.45004192484999694,"60":0.039340102070809235,"61":0.20492934515356367,"62":-0.5372277681903024,"63":0.15184457549829333,"64":-0.7339821179993472,"65":-0.0745803504396039,"66":0.380864356604865,"67":0.2426335564465906,"68":0.5117837057342551,"69":-0.5712077470316084,"70":-0.36986064312782047,"71":-0.009385638048013204,"72":0.08721190827649182,"73":0.11294655953314357,"74":-0.19546961912992883,"75":0.2350130161671176,"76":0.27181514236135196,"77":0.1448988843920929,"78":0.17613357505794666,"79":0.13241426150189242,"80":-0.07764455818997981,"81":-0.2451388948369847,"82":-0.21936434947358407,"83":-0.43204215182704714,"84":0.37274065362758957,"85":0.18132054236348322,"86":0.009030343027658077,"87":-0.014574911555949643,"88":0.9401479738134222,"89":0.1527443471819295,"90":0.000248974578982146,"91":-0.5065482976848774,"92":0.05923035050871038,"93":-0.41927128229947297,"94":-0.09944730431739066,"95":0.011191371366948014,"96":-0.018661584031650538,"97":-0.04245954670975269,"98":-0.112149585612545,"99":0.06297279503910919,"100":0.08500187455206368,"101":-0.6850845365953038,"102":-0.6579525033754497,"103":-0.21350449051042242,"104":-0.684589423030823,"105":0.26042988746082407,"106":0.14086618273475665,"107":-0.10725452065368966,"108":0.6724957398112852,"109":-0.19462244513686522,"110":-0.7359499913257936,"111":0.133458913153843,"112":-0.2680874422238203,"113":0.07955989852786152,"114":0.1483866859016943,"115":-0.16932061661329592,"116":0.12039359887147151,"117":-0.020322851897415277,"118":-0.09359548067363528,"119":-0.4623114950089097,"120":-0.24041016792557296,"121":-0.11162425188844921,"122":-0.299435229316321,"123":-0.04338645025578395,"124":0.34803034214668416,"125":0.12382876432409098,"126":-0.18323306125719155,"127":-0.22121332073287364,"128":-0.021344613561921407,"129":0.32490616229915764,"130":0.11356698375776413,"131":-0.007632218876121322,"132":0.31348570953120725,"133":-0.14505170131205353,"134":0.09378483109601565,"135":-0.0960657189495207,"136":-0.11180463151560553,"137":0.3607616377653861,"138":-0.17198297952761865,"139":-0.10029373458081604,"140":-0.28295388318834713,"141":-0.39391566294239283,"142":-0.05838234898930091,"143":-0.18361437206953032,"144":-0.14171107649361867,"145":0.2388456654042343,"146":-0.32341780286648186,"147":-0.5214085751454733,"148":-0.054834250206602306,"149":-0.2571359366683627,"150":-0.17720976431061528,"151":-0.09572894757178133,"152":-0.404903924559592,"153":0.07462829426012176,"154":0.32681217387765554,"155":-0.14133025329739396,"156":-0.15795243546425983,"157":-0.05900843372503206,"158":-0.16150247044827679,"159":-0.24826706225308082,"160":-0.07566102879608343,"161":0.034149433974163194,"162":-0.06357288834916885,"163":-0.018211442335425407,"164":0.11888359254768925,"165":-0.5111855760783274,"166":0.14872695261577723,"167":-0.26807488035223836,"168":-0.49328597849080147,"169":-0.15899717397775462,"170":0.06266891392172341,"171":0.08805083633812037,"172":-0.13283412107831474,"173":-0.031366761729339776,"174":0.17028415576816472,"175":-0.32717204492005947,"176":-0.12320127079684455,"177":-0.021231997174990375,"178":-0.20466357129908685,"179":0.15019328630608889,"180":-0.015660622803780496,"181":0.18104552741456703,"182":-0.13246159959889883,"183":-0.5539746881408432,"184":-0.14878148672748617,"185":0.06261231676845196,"186":-0.19553309601937147,"187":-0.10875007639646496,"188":-0.10643729691175811,"189":0.03526027475400394,"190":0.06020783359727629,"191":0.14319560107445017,"192":-0.2020703531097948,"193":-0.21609392705778763,"194":0.1851954354834297,"195":0.16318636460049266,"196":0.08566049145746682,"197":0.17422842691840304,"198":-0.32478114257428725,"199":-0.04541874135033034}},{"sx":5,"sy":5,"depth":8,"w":{"0":-0.7339288474391604,"1":-0.08854813449794273,"2":0.35244213789863543,"3":-0.007916148751995904,"4":0.011597681451827003,"5":0.12202855612088755,"6":0.26477929545652024,"7":0.21462230162861118,"8":-0.6423656214888032,"9":0.48001606365704746,"10":-0.3539956903842459,"11":-0.09748753790598806,"12":-0.814656607639958,"13":-0.31040275507457854,"14":-0.49059886949238346,"15":0.061890623120329426,"16":-0.12856922109564964,"17":-0.15071865695346312,"18":-0.41636383469225025,"19":-0.10219382955982054,"20":-0.23129410283011645,"21":0.28088880253543025,"22":-0.2557021707077956,"23":0.3437324930676916,"24":-0.5917143132600773,"25":-0.06772672012016573,"26":-0.3189181900863039,"27":-0.17861437941131084,"28":-0.42288330218772724,"29":0.2665904955275832,"30":-0.0011738182068583487,"31":-0.058191975128497705,"32":0.013223286895359758,"33":0.37763390105764943,"34":-0.49819868884979673,"35":-0.14529049395965637,"36":-0.6219652021905641,"37":0.21967090666826916,"38":0.14399800091152248,"39":0.12681573610966176,"40":-0.12668806513254213,"41":-0.7749989219248538,"42":-0.3858447291757371,"43":0.0042615969858301374,"44":0.20884596071706277,"45":0.07373415694066553,"46":0.3175560289789775,"47":-0.4805803668064077,"48":-0.0733909414114449,"49":0.09652441737265631,"50":-0.2840877181898108,"51":0.15611506328990207,"52":0.20041822688125427,"53":-0.15918526979778277,"54":0.17230102242814754,"55":0.1885664857235728,"56":0.6938264425590318,"57":-0.23011827043376146,"58":-0.15264480540466963,"59":0.04031118911887939,"60":0.22616810210829216,"61":0.17763193658322934,"62":0.07022762248169358,"63":0.5268201070301286,"64":-0.3589566793812168,"65":-0.41204939483966907,"66":-0.36398803574712146,"67":-0.40422121101000014,"68":-0.11188638603260143,"69":0.11823687193797423,"70":0.2509230455046581,"71":-0.2524928192528844,"72":-0.06756666274688296,"73":-0.24181248187636406,"74":-0.3612479883978178,"75":-0.4730697258331679,"76":-0.4438093634939811,"77":0.302190184788465,"78":0.21472185117377826,"79":-0.09680972035291267,"80":-0.4544794582040408,"81":-0.4283782967435133,"82":-0.22200311320010338,"83":0.03882769753457371,"84":0.17712760516187798,"85":-0.2800116216686537,"86":-0.042329437421724986,"87":-0.042814573334407025,"88":-0.26751450444160074,"89":0.3802153527639714,"90":-0.46603660075634074,"91":-0.03276972910506484,"92":0.23849175934805142,"93":0.07303758103282765,"94":-0.7319368372513215,"95":0.10286058903316381,"96":0.4348965723094551,"97":-0.26372721838954016,"98":0.40576212277739904,"99":0.04971364806175453,"100":0.40426974364876656,"101":0.11190929138215283,"102":0.05244325279134279,"103":0.058600363535474244,"104":-0.5012560380040595,"105":-0.30627503407253676,"106":0.5006428373775222,"107":-0.3363555023018484,"108":0.03411156904712607,"109":-0.29034882373372667,"110":0.0338638510058989,"111":-0.059050469474166534,"112":-0.09116214331974833,"113":0.35281099702230134,"114":-0.11671096125615754,"115":-0.07243387657050879,"116":-0.6618213993405666,"117":-0.18932703149319144,"118":-0.24841190086031278,"119":-0.03333682930605008,"120":-0.19696845027177068,"121":0.16605170499926877,"122":-0.09344341350040553,"123":-0.19766286876123096,"124":-0.3025837973934135,"125":-0.179740477223786,"126":-0.2664260332939457,"127":0.07512819805685854,"128":-0.7628019118088116,"129":0.26084443576403105,"130":-0.5141501860643143,"131":0.250388081869242,"132":-0.24612043705089715,"133":-0.04934717260864082,"134":-0.622029147271982,"135":0.1940851365397469,"136":-0.8043792758031428,"137":-0.7714310503196046,"138":-0.15475725931485557,"139":0.376879281607908,"140":0.12949793006827787,"141":0.01535067743786498,"142":0.08403582225926891,"143":-0.055825689629795984,"144":-0.7593157393524735,"145":-0.1741864337823683,"146":0.14713696090090753,"147":0.10595834366404278,"148":-0.26495478662439326,"149":-0.3680112725495961,"150":-0.07286999157571374,"151":-0.483716615078965,"152":0.35927389165273443,"153":0.179368299416125,"154":-0.11817976591152371,"155":0.14428697222676062,"156":-0.23315020652506652,"157":-0.6323107259489179,"158":-0.4007870410720143,"159":0.1903999150442201,"160":0.21103296040998384,"161":-0.07984985915990465,"162":0.027091171266148167,"163":-0.09335034849334145,"164":-1.1398889746599472,"165":-0.07581495741043584,"166":0.054249965564525965,"167":-0.006201042457952005,"168":-0.4625134776035834,"169":-0.03994535324540048,"170":0.0632024930968091,"171":0.29807861565372407,"172":-0.5535724515175767,"173":0.09727163163438939,"174":0.14866938033796492,"175":-0.3850856362142284,"176":-0.67642606220179,"177":-0.5363047584293364,"178":-0.7398643001962586,"179":0.5367399731448018,"180":0.1200410312955503,"181":-0.2993251615330729,"182":-0.3580684792369038,"183":-0.21147370114856479,"184":-0.08441891993519614,"185":-0.2700942860216007,"186":-0.2538163524774622,"187":0.5135737376383127,"188":0.04068357787888951,"189":0.048072562663179615,"190":-0.20478664277015218,"191":0.09356341602083718,"192":-0.10526039443943637,"193":0.20736763137121925,"194":-0.5875120447118176,"195":0.2910984878912343,"196":-0.45688694566014804,"197":0.09284403154310006,"198":-0.033778293246536195,"199":0.11203444567248107}},{"sx":5,"sy":5,"depth":8,"w":{"0":0.2152337493346365,"1":-0.14174065568097274,"2":0.4855445868237125,"3":-0.1615419666859287,"4":-0.04678530353491243,"5":-0.218279746025393,"6":-0.12086151712321604,"7":-0.13824139412760333,"8":0.3460305853893443,"9":-0.235151472714903,"10":-0.03236145767204146,"11":-0.25159551170130406,"12":-0.006005720558917125,"13":0.029766620562101564,"14":0.18277217827327794,"15":-0.5054499784705994,"16":0.5851008091435264,"17":0.07722932815432282,"18":0.02039323725344824,"19":-0.4438361292197169,"20":0.09204279366333078,"21":-0.11626954385000592,"22":0.0699715422902124,"23":-0.07914804836013857,"24":0.3200912689172108,"25":0.17136922762351017,"26":-0.08490198663479913,"27":-0.40161086014007075,"28":-0.018955776850603054,"29":-0.15855339582610328,"30":-0.27705208579693974,"31":0.019381497774326125,"32":-0.19743086235279184,"33":-0.027438827246068616,"34":0.40690528925505026,"35":-0.04614779166874366,"36":-0.21539085255948415,"37":0.2795019023163523,"38":0.42812764361480915,"39":-0.5345456209948918,"40":0.22444446669366183,"41":0.31931922271722357,"42":-0.25472317997281996,"43":0.12165918192326353,"44":-0.024484556901001004,"45":-0.23004210764614283,"46":0.022544552316188776,"47":-0.0018943700355446046,"48":-0.12769691153321072,"49":0.0452216741862411,"50":-0.34965704343238396,"51":-0.04408921609628297,"52":-0.10352138869512192,"53":-0.38291659141349516,"54":-0.04882958997942191,"55":-0.41612533196599544,"56":0.24295044197323554,"57":-0.014236148075747614,"58":-0.3895000815355368,"59":-0.30685566399114383,"60":0.35319602560246083,"61":-0.3421961631551874,"62":-0.2694401337830412,"63":-0.26703538852189146,"64":0.35085773018902283,"65":-0.006057538654887711,"66":-0.4361898774270366,"67":-0.23780905025335985,"68":0.4830279611613421,"69":-0.2033572447078357,"70":-0.45980301037014476,"71":-0.01404651916956977,"72":0.3775353382146649,"73":-0.33075096636954676,"74":-0.10020534895433421,"75":0.0029304152881696713,"76":0.4757279614888207,"77":0.1876552268141562,"78":-0.28412920831506644,"79":-0.2790267873237882,"80":0.8530411810197267,"81":0.15040999329582116,"82":-0.031099309400103012,"83":-0.18296909641697306,"84":-0.037947020338474295,"85":-0.2623272792580769,"86":-0.16539683712967812,"87":-0.010671538669365817,"88":-0.15297586717891556,"89":0.20840610219925101,"90":-0.2511183316373924,"91":0.16986642519343031,"92":0.09727653279505749,"93":-0.10002407145165085,"94":-0.5386305660169592,"95":0.023751887861382836,"96":-0.2860775349529838,"97":0.1849613119507213,"98":0.14224192064370267,"99":-0.3202496915425561,"100":0.3382480440464675,"101":0.03660152326267948,"102":-0.45144952795285076,"103":-0.16187899330892944,"104":-0.005431955227174897,"105":0.39735339707609535,"106":0.37950653887117,"107":-0.3876883661902311,"108":0.3000443548724048,"109":-0.14480587650249005,"110":-0.09189482697374066,"111":0.1104202666963001,"112":0.13088298193627781,"113":0.3783456865708566,"114":0.18988265291570625,"115":-0.557450040951282,"116":0.01686052400916465,"117":0.00686696397929321,"118":-0.26644351022743534,"119":0.05232915615308047,"120":0.7366868021928417,"121":0.16336913216812018,"122":0.7461657039818685,"123":-0.3813200229222364,"124":0.6694067740939782,"125":-0.24041357676515687,"126":-0.02515573006383074,"127":0.01036671086007847,"128":0.5558032326549104,"129":0.20706297637125268,"130":-0.047070599496991605,"131":-0.07528651849266028,"132":0.31985318770791754,"133":-0.3162818983004141,"134":-0.8397266718622145,"135":0.324979289519668,"136":0.42071702490263335,"137":0.12664702036269607,"138":-0.4913918426973076,"139":-0.34606989214487016,"140":-0.026224647932973483,"141":-0.6707072522715382,"142":-0.43367714361420173,"143":-0.6261551238771479,"144":0.4513598407822227,"145":-0.03356419263136424,"146":-0.4404927367151119,"147":-0.05849896582230163,"148":-0.07309662783207962,"149":-0.5108979841896472,"150":-0.18027852015882193,"151":-0.131015733886217,"152":0.7095790318379803,"153":-0.16890672615782665,"154":0.002431441359379956,"155":-0.016493665767717446,"156":-0.3344805357966029,"157":0.06911041982824807,"158":-0.37971888073691973,"159":-0.15692328178637316,"160":-0.3460543513843518,"161":0.1513516292310435,"162":-0.3614556680233916,"163":-0.12715028003373793,"164":0.08403120185199678,"165":-0.042339675336472996,"166":-0.3710771994528207,"167":-0.5587058043011499,"168":0.6943208215791978,"169":0.5236934680852149,"170":-0.17562135960016842,"171":0.009842861118818616,"172":0.35197560534004707,"173":-0.4010297514484393,"174":-0.2476028769029498,"175":-0.1987110734467317,"176":-0.05131954519932671,"177":0.338129507521905,"178":-0.31670878954820175,"179":0.1019301785705108,"180":-0.04934227569304305,"181":-0.3053270040822,"182":-0.11422477072045703,"183":-0.031411717494331685,"184":-0.014757554271389762,"185":0.007012570856535503,"186":0.132046565724868,"187":0.0886541537072834,"188":0.3229996148653277,"189":-0.06844563452143988,"190":0.14552766313306814,"191":-0.23749181905196026,"192":-0.19107961949757743,"193":0.32119471573455083,"194":0.2586233943028421,"195":-0.3224944230833356,"196":-0.009038514988510759,"197":-0.17771476837100694,"198":-0.12214239794182864,"199":-0.04056140752315402}},{"sx":5,"sy":5,"depth":8,"w":{"0":0.5974175836423304,"1":0.38138081702775695,"2":-0.1612427428311204,"3":-0.2050972940348067,"4":-0.12039271971511074,"5":0.08405423076150033,"6":-0.25801164820090294,"7":-0.20161785358742682,"8":0.2542746705992559,"9":-0.1367342496776504,"10":-0.008818302968609923,"11":-0.0209770025938097,"12":0.47721143041122766,"13":0.11161690737952101,"14":0.04955117452578841,"15":-0.4489621968872772,"16":-0.12409868212259922,"17":-0.4319732431835491,"18":0.13585146939710263,"19":-0.032306886904168636,"20":0.08936327608096294,"21":-0.4702980536654629,"22":0.43227957349240936,"23":-0.2894282413743458,"24":0.45641559338373144,"25":-0.09411878014876655,"26":-0.025634947172838474,"27":0.12468685741053981,"28":-0.34378774930277634,"29":0.03552977951596617,"30":-0.21847599370471582,"31":0.11748962437222701,"32":-0.42625733205781735,"33":-0.3228070719467015,"34":-0.11547530729053877,"35":-0.38087707589363323,"36":-0.2082424728214446,"37":-0.06011983491798623,"38":-0.2623964091873152,"39":0.12105217065443816,"40":0.1295654893959628,"41":-0.14778406451360904,"42":-0.08009185788405307,"43":-0.5134675278826281,"44":-0.10760668685048563,"45":-0.3367367819256137,"46":0.45451163836617886,"47":0.24270646015356265,"48":0.06373172464357114,"49":-0.36564975266940525,"50":-0.018805082104300482,"51":-0.3789640337562874,"52":0.08473140229386979,"53":-0.01631258909681694,"54":-0.03661164338626844,"55":-0.03858531586559097,"56":0.14935011658201178,"57":0.5402599719777925,"58":0.21060587082717688,"59":-0.1892669847783289,"60":-0.004998788769190147,"61":-0.11543113575140504,"62":0.0099221024207796,"63":0.023710384471581733,"64":0.35231258182733916,"65":-0.26549227262004665,"66":0.12588737458277507,"67":0.011082948945910116,"68":0.11129942904643908,"69":-0.27382843914306154,"70":0.13155301172085918,"71":0.2840070415325373,"72":-0.1809184767849162,"73":-0.4849366448667014,"74":-0.12777180021810725,"75":-0.05244621467334476,"76":-0.23845565698381085,"77":-0.21628298662219847,"78":-0.051313985977413275,"79":0.004213606995308435,"80":-0.4506673811209381,"81":-0.17765364631781375,"82":0.4766032828097028,"83":-0.28086737050307137,"84":0.4459445569092837,"85":-0.8512433380987142,"86":0.27527887885371427,"87":-0.11586918428633937,"88":-0.9850565865842633,"89":-0.23086911215317166,"90":0.004921021361441709,"91":-0.36456867375910795,"92":0.14903665873743527,"93":-0.5230616260227916,"94":-0.6583377777131381,"95":-1.0064659306991528,"96":-0.6710980014064672,"97":0.22631777713262535,"98":-0.04336684240353617,"99":-0.18930356716994282,"100":0.09561909210980098,"101":-0.32616416690684796,"102":0.36535793104305064,"103":-0.6797626223385898,"104":0.0653315593264106,"105":-0.029303873062193363,"106":0.554474691313158,"107":-0.054476631758269584,"108":0.19224823675588817,"109":-1.1257690763966581,"110":0.2458179413355854,"111":-0.33298528138850503,"112":-0.5463504275959462,"113":-0.07150714551905235,"114":0.13226324491337688,"115":-0.1415364716212619,"116":0.44421790141216866,"117":-1.1456077525202668,"118":-0.1405109976045883,"119":-0.45307976242886255,"120":-0.06632855024968005,"121":0.45959586728734775,"122":-0.07658075426678185,"123":-0.3559132086558285,"124":-0.15028291664202023,"125":0.4876507305553951,"126":-0.51126984797131,"127":-0.03356151942975957,"128":0.35096026143904757,"129":-0.07767689369452975,"130":0.03528882745357856,"131":-0.4617442981373647,"132":0.3737132350735857,"133":-0.39928115562120603,"134":-0.5061992133597754,"135":-0.7738591060248714,"136":0.13079154029106602,"137":-0.010883309896704187,"138":-0.13320155600149494,"139":-0.30258564639609814,"140":0.08287706748083763,"141":-0.4176039644117441,"142":-0.1389193316425311,"143":-0.27795695278867816,"144":-0.05635644029117064,"145":-0.1038931590105785,"146":-0.2829968411781734,"147":-0.22307097091407782,"148":-0.4798999168828918,"149":0.3218787670263921,"150":-0.18959226563222464,"151":0.11976245309498469,"152":0.328304892756531,"153":-0.5513203462919063,"154":0.11651353855923982,"155":-0.6416430558373188,"156":0.051502419852119945,"157":0.07472898790569883,"158":-0.39780724388775973,"159":-0.19074484632879105,"160":-0.570227298047074,"161":0.3316031765728867,"162":0.20478557911577294,"163":0.22488116693862958,"164":-0.3263187611793744,"165":0.5162889065470864,"166":0.3315706965751825,"167":-0.10768112977965673,"168":-0.6431534729412143,"169":-0.11156813479360234,"170":-0.38622568578476435,"171":0.11518232106756986,"172":-0.8094327509810703,"173":0.2307898627310106,"174":-0.4287685737849108,"175":-0.025685343834333324,"176":-0.9857136434846892,"177":-0.21002280733299195,"178":-0.07060123907039638,"179":-0.0889360799892367,"180":-0.06116764053132132,"181":-0.46594285369093896,"182":-0.0370385010061865,"183":0.45435603691585796,"184":-1.0000101407049546,"185":0.24905414468166148,"186":0.3402499903223217,"187":-0.02801048349545787,"188":0.26699836945194877,"189":-0.2232346710376363,"190":-0.1368354399546438,"191":0.08324420082290321,"192":0.14255421825407227,"193":0.22287169073074603,"194":-0.21825341189965577,"195":-0.3230371714582,"196":-0.18504106338759974,"197":0.16837636981051485,"198":0.3302248192933689,"199":-0.23042454681505287}}],"biases":{"sx":1,"sy":1,"depth":16,"w":{"0":-0.25895464092546233,"1":-0.39044199828075016,"2":-0.5081499019482228,"3":-0.342232915128425,"4":-0.4084825710562309,"5":-0.3162940500433817,"6":-0.10568903569633967,"7":-0.2960821745433696,"8":-0.28287201160363473,"9":-0.3060505851331888,"10":-0.49156659259903274,"11":-0.049496628926092294,"12":-0.1797205029774996,"13":-0.29283775729948996,"14":-0.382567853566348,"15":-0.12823180979013216}}},{"out_depth":16,"out_sx":12,"out_sy":12,"layer_type":"relu"},{"sx":3,"sy":3,"stride":3,"in_depth":16,"out_depth":16,"out_sx":4,"out_sy":4,"layer_type":"pool","pad":0},{"out_depth":4,"out_sx":1,"out_sy":1,"layer_type":"fc","num_inputs":256,"l1_decay_mul":0,"l2_decay_mul":1,"filters":[{"sx":1,"sy":1,"depth":256,"w":{"0":-0.1777078431881886,"1":0.3111507903210873,"2":0.15834729968897146,"3":-0.17776203516443811,"4":0.17725309754159368,"5":0.0826311346924797,"6":0.08237085704085462,"7":-0.2734770720689427,"8":-0.12689876596180924,"9":0.13387228996781267,"10":0.2763574152523677,"11":0.16406950834135045,"12":0.0915301449892444,"13":0.18122708158642356,"14":0.13942036390437482,"15":-0.7913223760841918,"16":-0.5563692578666274,"17":0.25551749539740237,"18":0.17368101752639922,"19":-0.18133007834390275,"20":0.06919612338927052,"21":0.1769434177414023,"22":0.3726563498095241,"23":0.16145751157571503,"24":-0.22918934352405784,"25":0.06776375724735541,"26":0.3244492068968728,"27":0.33706272603519977,"28":-0.4591880438385714,"29":0.43564036657279825,"30":0.5773548434499554,"31":-0.4885158397493022,"32":-0.10432536469846668,"33":0.30797792973041016,"34":0.27314797376929073,"35":-0.12787307367744552,"36":0.02655729282629903,"37":0.16880126536069845,"38":0.26734966718149317,"39":0.3340759853862106,"40":-0.18833534591486797,"41":-0.1540172028303186,"42":0.22162263901141588,"43":-0.05678320119456089,"44":0.45308318614155285,"45":0.26673370457956924,"46":0.50312529693768,"47":-0.7756826949801852,"48":0.25317137612990837,"49":-0.01280514173574572,"50":0.008828231040861848,"51":0.01929561104739026,"52":0.17289540689753216,"53":0.17065469264169997,"54":0.5285526113152619,"55":0.12934363326485349,"56":-0.3074578653133196,"57":-0.014743519898299744,"58":0.05525320789854368,"59":-0.051938273010255186,"60":0.24985566955476904,"61":0.34174963393371316,"62":0.46033537562658333,"63":-0.7717580237898998,"64":0.07054396098339363,"65":0.2037627685161461,"66":0.2362045272370761,"67":-0.20777994618752296,"68":0.009059146574599924,"69":0.10631212413163924,"70":-0.4396489280834674,"71":0.047209706056983367,"72":-0.0891123226947088,"73":0.11859093745751136,"74":-0.011243241136407905,"75":-0.17024775782707133,"76":-0.3151270683579266,"77":-0.028942129440386936,"78":0.09839436515500649,"79":-0.3798231639322846,"80":-1.1921976051282068,"81":0.3726510718183612,"82":0.43170599421943745,"83":-0.14649693179528347,"84":-0.06980524663369954,"85":-0.12970458412655972,"86":-0.027934144126062696,"87":0.2620293313723262,"88":-0.1534804596269722,"89":0.4131435165993162,"90":0.0036925191723531725,"91":-0.6678569879581102,"92":-1.1732919051359971,"93":0.47328484193432496,"94":0.5787860955985769,"95":-1.0690191475056146,"96":-0.6546542541449252,"97":0.3455624225044515,"98":0.5158011592617062,"99":0.04258637308387915,"100":-0.310082130131207,"101":-0.12863887393502352,"102":-0.0038970876696937736,"103":0.3832171352745771,"104":-0.4196948027636584,"105":0.29520725918915114,"106":0.1020760217594007,"107":-0.6405959038394907,"108":-0.004871189945278317,"109":0.36293984769957177,"110":0.5471759037443235,"111":-0.8784839138810002,"112":-0.06064261366131997,"113":0.0074207391092372685,"114":0.03831615615711833,"115":-0.033812310272847465,"116":-0.29984558642621895,"117":-0.34060801373411814,"118":-0.167379964370556,"119":0.3377455385993659,"120":-0.629390616599653,"121":-0.0032401419222511676,"122":-0.28576795360952756,"123":-0.38744691212242266,"124":-0.26890016997957933,"125":0.3736129591592667,"126":0.30682300425092474,"127":-0.6754394733737611,"128":-0.009780193447471646,"129":-0.1856305890849456,"130":0.463110146025757,"131":-0.46624647745073616,"132":-0.19896367344155055,"133":0.2445704207616647,"134":0.220574953726442,"135":-0.08821081116987449,"136":-0.1615804837187822,"137":0.01174052227115424,"138":0.0764170682518346,"139":-0.2365995498611375,"140":-0.20641365301550454,"141":0.38687929662064996,"142":-0.5460758458430293,"143":-0.1642209300679,"144":-0.6013607606883727,"145":0.21588256380739895,"146":0.2342270950551475,"147":-0.11699747274034943,"148":0.007779868137632463,"149":0.07644058950247136,"150":-0.1413221020295755,"151":0.048730843568883,"152":0.35534088032901245,"153":0.24433055024803615,"154":-0.007426397703038242,"155":-0.8028294144795406,"156":-0.4378339828822441,"157":0.6158793053140137,"158":-0.11934174148594806,"159":0.20093072688954622,"160":-0.5959567181765032,"161":0.07529243705634689,"162":0.09528672056228511,"163":0.3849849640888421,"164":-0.4372540852465562,"165":-0.24613881342263558,"166":-0.33870558092670056,"167":0.4438734263066979,"168":0.09681204257943275,"169":-0.11325779620180025,"170":0.2616803585248889,"171":-0.6697551426985053,"172":-0.6057711779586961,"173":0.33352624813388526,"174":-0.012112560948268365,"175":0.22980852734554594,"176":-0.42866159034201107,"177":0.03326496746150747,"178":0.14386259965957968,"179":0.5044667998362844,"180":-0.4429895992381588,"181":-0.1259537429780263,"182":-0.5777027217926811,"183":0.3354473829546898,"184":0.05025748305244666,"185":-0.20325710434038585,"186":-0.2520178533949715,"187":-0.6624826021079561,"188":0.13654591857296433,"189":0.25770326453001596,"190":0.051010771925216705,"191":-0.1376663686590436,"192":-0.2448740687021547,"193":0.08280537156662847,"194":0.02791227118705533,"195":-0.8375266457349907,"196":0.3485741723615324,"197":0.4245041478331408,"198":-0.5453255683453792,"199":-0.39758301197293283,"200":-0.17388604526504603,"201":-0.18426909975116637,"202":0.4367954377204095,"203":-0.23100799223477186,"204":-0.6401216678652958,"205":-0.17632802224715632,"206":-0.3626145210617711,"207":-0.11581637430841041,"208":0.4658530205952619,"209":0.27672736583937024,"210":-0.23506860038296823,"211":-0.30883477426549255,"212":0.22647298036468347,"213":0.33957696813715504,"214":-0.7978820421005084,"215":-0.448873029231402,"216":0.29408671770639755,"217":-0.022924098833578495,"218":0.12477728638266919,"219":-0.6683394746150995,"220":-1.0210799005942044,"221":-0.1538318070154437,"222":0.16241895011873728,"223":-0.12959920349708423,"224":0.5228221923250852,"225":-0.1854075133636699,"226":-0.16899005622162266,"227":0.09503527940420899,"228":-0.02963213935732236,"229":0.5460903622440758,"230":-0.7246363996448177,"231":0.17932906476590663,"232":0.6111386232066494,"233":-0.32288931356827794,"234":0.2228785101354875,"235":-0.5977200163250704,"236":-0.7533322063608122,"237":-0.19891425073255625,"238":0.46602514541175416,"239":0.03604895081966949,"240":0.162439407382825,"241":-0.13680977837557787,"242":-0.03391512194468291,"243":0.24526550858616145,"244":0.09950979689324378,"245":0.2303918151136755,"246":-0.6087209886130882,"247":-0.03788547685038934,"248":0.19978562029986907,"249":-0.20299783507357833,"250":-0.08206393378218681,"251":-0.6521462487128975,"252":-0.08462592853235994,"253":-0.05008636334833989,"254":-0.2851898510188109,"255":0.12932544043443098}},{"sx":1,"sy":1,"depth":256,"w":{"0":-0.12067982784924723,"1":-0.5085578610459766,"2":0.10168573724128939,"3":-0.43152277585324983,"4":-0.4228124077543827,"5":-0.17513855997362654,"6":-0.12080256251737304,"7":0.33244607527686826,"8":-0.11146227281667323,"9":0.13838324382221096,"10":-0.36893817304812143,"11":0.00317348890344475,"12":0.22885989029218776,"13":0.05506094584830411,"14":0.014603800470245634,"15":0.048053166222964974,"16":0.0891436329605824,"17":-0.7818727943435297,"18":-0.06639226782769171,"19":-0.9974615293691843,"20":-0.5401667987626408,"21":0.2816383224244497,"22":-0.27557969804406307,"23":-0.142047118877311,"24":0.1238294920242258,"25":0.17682239586026155,"26":-0.5548441834042341,"27":0.25273831971140576,"28":0.21484320066429347,"29":0.2982889164907156,"30":0.19331653262980766,"31":0.2928544095353462,"32":0.3453565280687222,"33":-0.29883797069838813,"34":-0.24560540866311334,"35":-0.7067948541295043,"36":-0.8758194648800219,"37":0.21648280694729155,"38":-0.08033740458611578,"39":-0.44714387565988933,"40":-0.08142053803839552,"41":-0.008498304613733874,"42":-0.3580790176938445,"43":0.10438624729272246,"44":0.06046982959671676,"45":0.02326348058218813,"46":0.01403238058119496,"47":0.30941708704847687,"48":0.10359163096106176,"49":-0.02156667340167206,"50":-0.07514417470400445,"51":-0.4152001154249634,"52":0.12590986149390102,"53":0.03578456778675522,"54":-0.3866332497879496,"55":-0.18670961539703818,"56":-0.192099514491885,"57":-0.025222468006098318,"58":-0.06042853440471689,"59":0.027653129003274508,"60":-0.06702472376377203,"61":-0.0925920213417116,"62":-0.21565845196293695,"63":-0.35513050419314485,"64":0.0586849874986033,"65":-0.2959459536883471,"66":-0.11703685182574351,"67":-0.30991456267714595,"68":-0.02572020831067906,"69":-0.4542756241247715,"70":0.3159618783981007,"71":0.24796879300147842,"72":0.052201144565535346,"73":0.07329817809792397,"74":-0.44513341899423403,"75":0.2838671182847833,"76":-0.22601226118506418,"77":0.3869539546223736,"78":-0.07708673255473097,"79":0.09692129219160145,"80":0.043138231567734754,"81":-0.40375175003165553,"82":-0.2964609511069647,"83":-0.7656359194332323,"84":0.043562349067522314,"85":0.6458158278045085,"86":0.03248122405175284,"87":-0.6243011020023679,"88":0.27627349081734864,"89":0.25788923904080974,"90":-0.5512053189169254,"91":0.30575080382356784,"92":0.10674580919165151,"93":-0.026610423018005473,"94":0.13056900635774607,"95":0.13631318446912244,"96":0.40700676609612285,"97":0.03207489127177804,"98":-0.424304516884781,"99":-0.5950704956479305,"100":-0.5695916500073646,"101":0.11931429488170442,"102":0.08966023868795324,"103":-0.8479966522954567,"104":0.10545769234941987,"105":-0.08926252929847056,"106":-0.4238695316728963,"107":0.38265870810753483,"108":-0.07638440771135395,"109":0.11640484565844626,"110":-0.05259486129127669,"111":-0.18390251984283298,"112":0.0816218788588884,"113":-0.17786332461858856,"114":0.47538757111081226,"115":-0.31389458668748443,"116":0.14775847039679443,"117":0.32300036747405514,"118":-0.10052322784898292,"119":-0.4070805031150318,"120":0.19658811771331808,"121":0.013668338560130876,"122":0.579665700559573,"123":-0.06032102241425997,"124":-0.044326906551351186,"125":-0.051544570013563024,"126":-0.1439219171355768,"127":-0.04966660009483695,"128":0.15577663671295058,"129":-0.09820634386961699,"130":-0.3585268543707844,"131":0.11008678056004607,"132":-0.0424633072192433,"133":-0.44644841052910966,"134":0.14710131922016847,"135":-0.20735013725715354,"136":0.05551510273436038,"137":0.1692940942587323,"138":-0.34518161112665696,"139":0.20701852962285994,"140":-0.1861385718836351,"141":-0.19365684441779887,"142":-0.15069565974186067,"143":-0.21166811177551442,"144":0.2402418874612898,"145":0.019428617359295283,"146":-0.5692925532773276,"147":0.5448320790323664,"148":-0.37364900644147964,"149":0.09245294686611118,